{"learner":{"attributes":{"scikit_learn":"{\"_estimator_type\": \"classifier\"}"},"feature_names":["pct_tl_open_L6M","pct_tl_closed_L6M","Tot_TL_closed_L12M","pct_tl_closed_L12M","Tot_Missed_Pmnt","CC_TL","Home_TL","PL_TL","Secured_TL","Unsecured_TL","Other_TL","Age_Oldest_TL","Age_Newest_TL","time_since_recent_payment","max_recent_level_of_deliq","num_deliq_6_12mts","num_times_60p_dpd","num_std_12mts","num_sub","num_sub_6mts","num_sub_12mts","num_dbt","num_dbt_12mts","num_lss","recent_level_of_deliq","CC_enq_L12m","PL_enq_L12m","time_since_recent_enq","enq_L3m","NETMONTHLYINCOME","Time_With_Curr_Empr","CC_Flag","PL_Flag","pct_PL_enq_L6m_of_ever","pct_CC_enq_L6m_of_ever","HL_Flag","GL_Flag","EDUCATION","MARITALSTATUS_Married","MARITALSTATUS_Single","GENDER_F","GENDER_M","last_prod_enq2_AL","last_prod_enq2_CC","last_prod_enq2_ConsumerLoan","last_prod_enq2_HL","last_prod_enq2_PL","last_prod_enq2_others","first_prod_enq2_AL","first_prod_enq2_CC","first_prod_enq2_ConsumerLoan","first_prod_enq2_HL","first_prod_enq2_PL","first_prod_enq2_others"],"feature_types":["float","float","int","float","int","int","int","int","int","int","int","int","int","int","int","int","int","int","int","int","int","int","int","int","int","int","int","int","int","int","int","int","int","float","float","int","int","int","i","i","i","i","i","i","i","i","i","i","i","i","i","i","i","i"],"gradient_booster":{"model":{"gbtree_model_param":{"num_parallel_tree":"1","num_trees":"400"},"iteration_indptr":[0,4,8,12,16,20,24,28,32,36,40,44,48,52,56,60,64,68,72,76,80,84,88,92,96,100,104,108,112,116,120,124,128,132,136,140,144,148,152,156,160,164,168,172,176,180,184,188,192,196,200,204,208,212,216,220,224,228,232,236,240,244,248,252,256,260,264,268,272,276,280,284,288,292,296,300,304,308,312,316,320,324,328,332,336,340,344,348,352,356,360,364,368,372,376,380,384,388,392,396,400],"tree_info":[0,1,2,3,0,1,2,3,0,1,2,3,0,1,2,3,0,1,2,3,0,1,2,3,0,1,2,3,0,1,2,3,0,1,2,3,0,1,2,3,0,1,2,3,0,1,2,3,0,1,2,3,0,1,2,3,0,1,2,3,0,1,2,3,0,1,2,3,0,1,2,3,0,1,2,3,0,1,2,3,0,1,2,3,0,1,2,3,0,1,2,3,0,1,2,3,0,1,2,3,0,1,2,3,0,1,2,3,0,1,2,3,0,1,2,3,0,1,2,3,0,1,2,3,0,1,2,3,0,1,2,3,0,1,2,3,0,1,2,3,0,1,2,3,0,1,2,3,0,1,2,3,0,1,2,3,0,1,2,3,0,1,2,3,0,1,2,3,0,1,2,3,0,1,2,3,0,1,2,3,0,1,2,3,0,1,2,3,0,1,2,3,0,1,2,3,0,1,2,3,0,1,2,3,0,1,2,3,0,1,2,3,0,1,2,3,0,1,2,3,0,1,2,3,0,1,2,3,0,1,2,3,0,1,2,3,0,1,2,3,0,1,2,3,0,1,2,3,0,1,2,3,0,1,2,3,0,1,2,3,0,1,2,3,0,1,2,3,0,1,2,3,0,1,2,3,0,1,2,3,0,1,2,3,0,1,2,3,0,1,2,3,0,1,2,3,0,1,2,3,0,1,2,3,0,1,2,3,0,1,2,3,0,1,2,3,0,1,2,3,0,1,2,3,0,1,2,3,0,1,2,3,0,1,2,3,0,1,2,3,0,1,2,3,0,1,2,3,0,1,2,3,0,1,2,3,0,1,2,3,0,1,2,3,0,1,2,3,0,1,2,3,0,1,2,3,0,1,2,3,0,1,2,3,0,1,2,3,0,1,2,3,0,1,2,3,0,1,2,3],"trees":[{"base_weights":[-3.5805905E-1,-5.3141934E-1,7.481362E-1,-5.810552E-1,6.2406224E-1,1.2651232E0,2.5246605E-1,-5.998218E-1,2.9381737E-1,1.4889336E-1,1.2044472E0,7.7462435E-1,1.5356396E0,7.684247E-3,1.348473E0,-6.3957316E-1,-3.5531932E-1,5.984E-1,-4.4145873E-1,3.3130867E-3,1.5675676E0,1.5623633E0,7.3211783E-1,1.144385E0,1.585903E-1,1.7533166E0,1.129751E0,-2.3712036E-1,8.518231E-1,1.5392255E0,6.1870503E-1,-6.570767E-1,-4.6719804E-1,-5.855466E-1,-5.7097226E-2,1.4524715E0,3.678392E-1,-5.110664E-1,7.5E-1,3.2016632E-1,-3.5239208E-1,1.7073171E0,3.448276E-1,2.8901735E-1,1.8397864E0,3.581489E-1,1.5357143E0,7.7894735E-1,1.7545127E0,-2.7232796E-1,1.416309E0,1.8069068E0,2.3076923E-1,6.061493E-1,1.5393654E0,2.2018349E-2,-4.8482183E-1,1.0420475E0,-2.0689656E-1,1.8112522E0,1.1896552E0,1.3636364E-1,1.3454546E0,-1.9829425E-1,-1.6800001E-1,-1.565912E-1,5.0381683E-2,-1.9104876E-1,-1.07514456E-1,-8.295219E-2,1.9965784E-1,7.2000004E-2,5.022625E-1,-3.2119915E-2,2.3283583E-1,7.2000004E-2,-1.7538463E-1,2.8695655E-1,3.529412E-2,-4.477612E-2,2.6820278E-1,-1.583062E-1,2.6294822E-2,1.826087E-1,5.355705E-1,-1.20000005E-1,3.176471E-1,4.379562E-3,3.2727274E-1,5.6358624E-1,1.5E-1,6.188341E-2,4.3728817E-1,4.9514565E-1,4.615385E-2,1.5808384E-1,4.0137932E-1,5.53125E-1,1.6800001E-1,-1.02631584E-1,7.951808E-2,4.5882356E-1,-1.20000005E-1,5.4969513E-1,2.2597402E-1,-1.4594595E-1,4.7368425E-1,1.0780399E-1,4.6285716E-1,3.5696205E-1,5.4310346E-1,6.7845866E-2,-1.5371901E-1,-9.6085414E-2,-1.9239412E-1,3.9685613E-1,5.018182E-2,-1.432258E-1,1.7142859E-1,5.5046904E-1,2.3076925E-1,1.3288592E-1,4.513932E-1,-8.059702E-2,3.6E-1,4.5306125E-1,-0E0],"categories":[],"categories_nodes":[],"categories_segments":[],"categories_sizes":[],"default_left":[0,0,0,0,0,0,0,0,0,0,0,0,0,0,0,0,0,0,0,0,0,0,0,0,0,0,0,0,0,0,0,0,0,0,0,0,0,0,0,0,0,0,0,0,0,0,0,0,0,0,0,0,0,0,0,0,0,0,0,0,0,0,0,0,0,0,0,0,0,0,0,0,0,0,0,0,0,0,0,0,0,0,0,0,0,0,0,0,0,0,0,0,0,0,0,0,0,0,0,0,0,0,0,0,0,0,0,0,0,0,0,0,0,0,0,0,0,0,0,0,0,0,0,0,0,0,0],"id":0,"left_children":[1,3,5,7,9,11,13,15,17,19,21,23,25,27,29,31,33,35,37,39,41,43,45,47,49,51,53,55,57,59,61,63,65,67,69,71,73,75,77,79,81,83,85,87,89,91,93,95,97,99,101,103,105,107,109,111,113,115,117,119,121,123,125,-1,-1,-1,-1,-1,-1,-1,-1,-1,-1,-1,-1,-1,-1,-1,-1,-1,-1,-1,-1,-1,-1,-1,-1,-1,-1,-1,-1,-1,-1,-1,-1,-1,-1,-1,-1,-1,-1,-1,-1,-1,-1,-1,-1,-1,-1,-1,-1,-1,-1,-1,-1,-1,-1,-1,-1,-1,-1,-1,-1,-1,-1,-1,-1],"loss_changes":[2.420563E3,6.261382E2,4.3794073E2,1.7194507E2,1.238876E2,1.0985388E2,2.3456921E2,9.9323975E1,4.961767E1,5.1317757E1,3.3068512E1,6.804016E1,4.5585938E1,1.4811105E2,2.126825E1,2.627124E1,9.846631E1,3.0233757E1,5.78442E0,2.5626719E1,3.3628044E0,3.982773E1,2.6233837E1,4.032753E1,6.1899746E1,2.8028564E1,3.9977997E1,3.5675705E1,3.2665268E1,9.815002E0,1.1997841E1,2.659668E0,2.8457382E1,9.202118E0,9.945665E1,8.436615E0,2.419873E1,3.5721035E0,4.0984654E-1,3.252558E1,8.309571E0,6.681824E-1,2.3513184E0,4.742746E0,3.9319763E0,1.0072876E1,4.1868362E0,1.6022652E1,6.349228E0,3.2920284E0,6.594898E0,7.6325684E0,1.3338986E1,1.9182743E1,7.9201813E0,2.9843601E1,7.1104584E0,3.3370285E1,5.6156363E0,2.8549194E-1,1.2975281E1,9.799864E0,3.0478668E0,0E0,0E0,0E0,0E0,0E0,0E0,0E0,0E0,0E0,0E0,0E0,0E0,0E0,0E0,0E0,0E0,0E0,0E0,0E0,0E0,0E0,0E0,0E0,0E0,0E0,0E0,0E0,0E0,0E0,0E0,0E0,0E0,0E0,0E0,0E0,0E0,0E0,0E0,0E0,0E0,0E0,0E0,0E0,0E0,0E0,0E0,0E0,0E0,0E0,0E0,0E0,0E0,0E0,0E0,0E0,0E0,0E0,0E0,0E0,0E0,0E0,0E0,0E0,0E0],"parents":[2147483647,0,0,1,1,2,2,3,3,4,4,5,5,6,6,7,7,8,8,9,9,10,10,11,11,12,12,13,13,14,14,15,15,16,16,17,17,18,18,19,19,20,20,21,21,22,22,23,23,24,24,25,25,26,26,27,27,28,28,29,29,30,30,31,31,32,32,33,33,34,34,35,35,36,36,37,37,38,38,39,39,40,40,41,41,42,42,43,43,44,44,45,45,46,46,47,47,48,48,49,49,50,50,51,51,52,52,53,53,54,54,55,55,56,56,57,57,58,58,59,59,60,60,61,61,62,62],"right_children":[2,4,6,8,10,12,14,16,18,20,22,24,26,28,30,32,34,36,38,40,42,44,46,48,50,52,54,56,58,60,62,64,66,68,70,72,74,76,78,80,82,84,86,88,90,92,94,96,98,100,102,104,106,108,110,112,114,116,118,120,122,124,126,-1,-1,-1,-1,-1,-1,-1,-1,-1,-1,-1,-1,-1,-1,-1,-1,-1,-1,-1,-1,-1,-1,-1,-1,-1,-1,-1,-1,-1,-1,-1,-1,-1,-1,-1,-1,-1,-1,-1,-1,-1,-1,-1,-1,-1,-1,-1,-1,-1,-1,-1,-1,-1,-1,-1,-1,-1,-1,-1,-1,-1,-1,-1,-1],"split_conditions":[9.1E1,1.7E1,1E0,1.595E3,1.13E2,1.09E2,1.3E1,6.1E1,1E0,4.2E1,1E0,1E0,6E0,1.56E2,3E0,9E0,1.05E2,3.2E1,4E0,1E0,4E0,3E1,2.8E1,2E0,1.3E1,1.38E2,3E0,2E0,4E0,1.1E1,1.44E2,9.96E2,8.1E2,8E0,7E0,5.5E1,6.7E1,5.1E1,1E0,5.1E1,2.8E1,1E0,3E0,2.3E1,4E-2,9.96E2,3.2E2,1.287E3,2.08E-1,1.595E3,5.19E-1,8.18E-1,1.357E3,1.74E2,1.4E2,2.2E1,3E0,2.3E1,1E0,1.9E1,1.12E2,2.9E1,8E0,-1.9829425E-1,-1.6800001E-1,-1.565912E-1,5.0381683E-2,-1.9104876E-1,-1.07514456E-1,-8.295219E-2,1.9965784E-1,7.2000004E-2,5.022625E-1,-3.2119915E-2,2.3283583E-1,7.2000004E-2,-1.7538463E-1,2.8695655E-1,3.529412E-2,-4.477612E-2,2.6820278E-1,-1.583062E-1,2.6294822E-2,1.826087E-1,5.355705E-1,-1.20000005E-1,3.176471E-1,4.379562E-3,3.2727274E-1,5.6358624E-1,1.5E-1,6.188341E-2,4.3728817E-1,4.9514565E-1,4.615385E-2,1.5808384E-1,4.0137932E-1,5.53125E-1,1.6800001E-1,-1.02631584E-1,7.951808E-2,4.5882356E-1,-1.20000005E-1,5.4969513E-1,2.2597402E-1,-1.4594595E-1,4.7368425E-1,1.0780399E-1,4.6285716E-1,3.5696205E-1,5.4310346E-1,6.7845866E-2,-1.5371901E-1,-9.6085414E-2,-1.9239412E-1,3.9685613E-1,5.018182E-2,-1.432258E-1,1.7142859E-1,5.5046904E-1,2.3076925E-1,1.3288592E-1,4.513932E-1,-8.059702E-2,3.6E-1,4.5306125E-1,-0E0],"split_indices":[11,17,28,27,27,11,17,11,14,17,14,14,24,11,28,17,27,12,10,14,28,11,17,17,17,12,17,28,28,24,11,27,27,17,17,11,11,13,4,11,17,2,12,17,33,27,13,27,33,27,33,33,27,11,11,12,28,12,17,10,11,17,7,0,0,0,0,0,0,0,0,0,0,0,0,0,0,0,0,0,0,0,0,0,0,0,0,0,0,0,0,0,0,0,0,0,0,0,0,0,0,0,0,0,0,0,0,0,0,0,0,0,0,0,0,0,0,0,0,0,0,0,0,0,0,0,0],"split_type":[0,0,0,0,0,0,0,0,0,0,0,0,0,0,0,0,0,0,0,0,0,0,0,0,0,0,0,0,0,0,0,0,0,0,0,0,0,0,0,0,0,0,0,0,0,0,0,0,0,0,0,0,0,0,0,0,0,0,0,0,0,0,0,0,0,0,0,0,0,0,0,0,0,0,0,0,0,0,0,0,0,0,0,0,0,0,0,0,0,0,0,0,0,0,0,0,0,0,0,0,0,0,0,0,0,0,0,0,0,0,0,0,0,0,0,0,0,0,0,0,0,0,0,0,0,0,0],"sum_hessian":[1.2619125E4,1.0909875E4,1.70925E3,1.0461E4,4.48875E2,8.35875E2,8.73375E2,1.0241625E4,2.19375E2,2.475E2,2.01375E2,2.985E2,5.37375E2,7.1475E2,1.58625E2,8.808E3,1.433625E3,1.5525E2,6.4125E1,2.25375E2,2.2125E1,1.1325E2,8.8125E1,1.86E2,1.125E2,3.47625E2,1.8975E2,5.54625E2,1.60125E2,1.24875E2,3.375E1,7.9935E3,8.145E2,8.085E2,6.25125E2,3.1875E1,1.23375E2,6.1125E1,3E0,1.1925E2,1.06125E2,1.95E1,2.625E0,2.0625E1,9.2625E1,6.1125E1,2.7E1,1.1775E2,6.825E1,8.4375E1,2.8125E1,3.35625E2,1.2E1,8.4375E1,1.05375E2,2.715E2,2.83125E2,1.3575E2,2.4375E1,6.7875E1,5.7E1,2.1E1,1.275E1,7.678875E3,3.14625E2,7.5E2,6.45E1,6.58125E2,1.50375E2,4.8E2,1.45125E2,5.25E0,2.6625E1,5.7375E1,6.6E1,5.25E0,5.5875E1,1.875E0,1.125E0,6.6E1,5.325E1,7.575E1,3.0375E1,1.875E0,1.7625E1,1.5E0,1.125E0,1.6125E1,4.5E0,8.9625E1,3E0,5.475E1,6.375E0,2.475E1,2.25E0,8.25E1,3.525E1,6.3E1,5.25E0,7.5E1,9.375E0,2.6625E1,1.5E0,3.27E2,8.625E0,8.25E0,3.75E0,6.7875E1,1.65E1,4.8375E1,5.7E1,1.96875E2,7.4625E1,1.395E2,1.43625E2,1.02375E2,3.3375E1,1.8375E1,6E0,6.5625E1,2.25E0,1.7625E1,3.9375E1,1.575E1,5.25E0,1.125E1,1.5E0],"tree_param":{"num_deleted":"0","num_feature":"54","num_nodes":"127","size_leaf_vector":"1"}},{"base_weights":[9.504066E-1,1.2111022E0,2.5009125E-1,1.358935E0,5.8985073E-2,-7.4874316E-3,8.0293983E-1,1.5196877E0,9.849681E-1,3.2348368E-1,-3.612226E-1,4.452473E-1,-3.4778538E-1,9.5666623E-1,5.4922976E-2,1.591973E0,2.367882E-1,5.951538E-1,1.2173842E0,9.166174E-1,3.2938458E-2,-1.3159609E-1,-5.6542057E-1,7.2943765E-1,-1.583851E-1,-4.223044E-1,7.529412E-1,1.276305E0,6.270997E-1,-1.9491525E-1,4.7755834E-1,1.6831007E0,9.907001E-1,1.1100245E0,-2.0232986E-1,3.279643E-1,1.218537E0,1.265147E0,5.668016E-2,1.1971831E0,3.374778E-1,-2.5386998E-1,5.6953645E-1,4.607595E-1,-3.3449477E-1,-5.7866824E-1,1.826087E-1,1.0844097E0,1.7399439E-1,-3.3258224E-1,9.041096E-1,-1.609421E-1,-6.011113E-1,1.0762887E0,-4.9261082E-2,1.3820754E0,-6.545454E-2,3.062645E-1,9.2241377E-1,-3.9036146E-1,1.1475409E0,8.0898875E-1,-1.0526316E-1,5.339284E-1,2.8070584E-1,4.8955065E-1,2.045596E-1,3.8457224E-1,-1.5929203E-2,6.02546E-2,-1.5193135E-1,4.8572768E-2,3.375423E-1,4.068385E-1,1.01298705E-1,3.9247796E-1,1.6834533E-1,1.230284E-1,-1.6540542E-1,2.968714E-1,5.402135E-1,4.1295547E-2,4.753247E-1,-1.120463E-1,1.1086957E-1,3.052023E-1,-9.160305E-3,2.806084E-1,-1.3714287E-1,-1.6554509E-1,1.88862E-2,-1.7970297E-1,-4.7191016E-2,2.2977963E-1,4.2050666E-1,-3.264418E-3,3.818182E-1,-1.3803682E-1,-4.485374E-2,3.0439883E-1,-1.5E-1,2.3912048E-2,-1.309837E-1,-1.4553776E-1,-1.9447488E-1,3.6545455E-1,-7.9245284E-2,-1.20000005E-1,1.9436622E-1,4.3798107E-1,7.826087E-2,-9.421489E-2,4.2439026E-1,-3.0623818E-2,2.8308606E-1,2.960995E-1,-1.0736843E-1,-2.3487547E-2,-1.626571E-1,4.5306125E-1,-7.5E-2,3.5357144E-1,5.1428575E-2,-1.0419162E-1,2.1600002E-1],"categories":[],"categories_nodes":[],"categories_segments":[],"categories_sizes":[],"default_left":[0,0,0,0,0,0,0,0,0,0,0,0,0,0,0,0,0,0,0,0,0,0,0,0,0,0,0,0,0,0,0,0,0,0,0,0,0,0,0,0,0,0,0,0,0,0,0,0,0,0,0,0,0,0,0,0,0,0,0,0,0,0,0,0,0,0,0,0,0,0,0,0,0,0,0,0,0,0,0,0,0,0,0,0,0,0,0,0,0,0,0,0,0,0,0,0,0,0,0,0,0,0,0,0,0,0,0,0,0,0,0,0,0,0,0,0,0,0,0,0,0,0,0,0,0],"id":1,"left_children":[1,3,5,7,9,11,13,15,17,19,21,23,25,27,29,31,33,35,37,39,41,43,45,47,49,51,53,55,57,59,61,63,65,67,69,71,73,75,77,79,81,83,85,87,89,91,-1,93,95,97,99,101,103,105,107,109,111,113,115,117,119,121,123,-1,-1,-1,-1,-1,-1,-1,-1,-1,-1,-1,-1,-1,-1,-1,-1,-1,-1,-1,-1,-1,-1,-1,-1,-1,-1,-1,-1,-1,-1,-1,-1,-1,-1,-1,-1,-1,-1,-1,-1,-1,-1,-1,-1,-1,-1,-1,-1,-1,-1,-1,-1,-1,-1,-1,-1,-1,-1,-1,-1,-1,-1],"loss_changes":[2.3037422E3,1.5662539E3,4.876973E2,4.8848047E2,1.16471085E2,3.6024255E2,1.2511401E2,5.280615E2,2.2152637E2,1.1077939E2,1.8909882E1,1.7224098E2,1.0981117E2,9.4310486E1,1.9798906E1,2.9389746E2,1.1722593E2,1.5254544E2,8.507495E1,3.3941605E1,6.672593E1,2.3215227E1,3.6808548E0,1.3435306E2,5.9897594E1,5.8360886E1,2.2101177E1,6.500049E1,4.2022095E1,3.1408554E1,1.3534256E1,3.366504E2,1.399411E2,2.050998E1,2.5098785E1,8.5084015E1,3.288745E1,4.403784E1,1.3495387E1,1.601062E1,1.731728E1,2.1214464E1,4.060694E1,2.1937223E1,1.242947E1,1.7239609E0,0E0,4.0974243E1,5.43001E1,6.4075794E0,7.5896416E0,3.38349E1,3.7443542E0,1.1852608E1,6.4637756E0,3.663379E1,1.3092296E1,5.6182426E1,1.9536896E1,4.873348E0,8.10681E0,1.0283546E1,5.4684906E0,0E0,0E0,0E0,0E0,0E0,0E0,0E0,0E0,0E0,0E0,0E0,0E0,0E0,0E0,0E0,0E0,0E0,0E0,0E0,0E0,0E0,0E0,0E0,0E0,0E0,0E0,0E0,0E0,0E0,0E0,0E0,0E0,0E0,0E0,0E0,0E0,0E0,0E0,0E0,0E0,0E0,0E0,0E0,0E0,0E0,0E0,0E0,0E0,0E0,0E0,0E0,0E0,0E0,0E0,0E0,0E0,0E0,0E0,0E0,0E0,0E0,0E0],"parents":[2147483647,0,0,1,1,2,2,3,3,4,4,5,5,6,6,7,7,8,8,9,9,10,10,11,11,12,12,13,13,14,14,15,15,16,16,17,17,18,18,19,19,20,20,21,21,22,22,23,23,24,24,25,25,26,26,27,27,28,28,29,29,30,30,31,31,32,32,33,33,34,34,35,35,36,36,37,37,38,38,39,39,40,40,41,41,42,42,43,43,44,44,45,45,47,47,48,48,49,49,50,50,51,51,52,52,53,53,54,54,55,55,56,56,57,57,58,58,59,59,60,60,61,61,62,62],"right_children":[2,4,6,8,10,12,14,16,18,20,22,24,26,28,30,32,34,36,38,40,42,44,46,48,50,52,54,56,58,60,62,64,66,68,70,72,74,76,78,80,82,84,86,88,90,92,-1,94,96,98,100,102,104,106,108,110,112,114,116,118,120,122,124,-1,-1,-1,-1,-1,-1,-1,-1,-1,-1,-1,-1,-1,-1,-1,-1,-1,-1,-1,-1,-1,-1,-1,-1,-1,-1,-1,-1,-1,-1,-1,-1,-1,-1,-1,-1,-1,-1,-1,-1,-1,-1,-1,-1,-1,-1,-1,-1,-1,-1,-1,-1,-1,-1,-1,-1,-1,-1,-1,-1,-1,-1],"split_conditions":[2E0,9.8E1,5.2E1,1E0,7E0,3E0,5E0,1.2E1,8.9E1,8.3E1,1.3E2,2E0,1E1,4E0,9.4E1,6.4E1,3.6E1,5.7E1,2.2E1,1.51E2,1E0,3.5E1,1E0,3.53E-1,7E0,4E0,5E0,1.64E2,7.9E1,1.3E1,8E0,8.67E-1,1.05E2,2.7E1,1.9E1,5E0,4.2E2,5.62E-1,3.1E1,3.7E1,1.25E2,9.5E1,1.4E2,1.8E1,1.5E1,8E0,1.826087E-1,1.5E1,4E0,3.2E1,1.7E1,4.38E-1,2.61E-1,2.9E1,4E0,1.9E1,4.9E1,2E0,3.1E1,6E0,1E0,1.4E1,1.56E2,5.339284E-1,2.8070584E-1,4.8955065E-1,2.045596E-1,3.8457224E-1,-1.5929203E-2,6.02546E-2,-1.5193135E-1,4.8572768E-2,3.375423E-1,4.068385E-1,1.01298705E-1,3.9247796E-1,1.6834533E-1,1.230284E-1,-1.6540542E-1,2.968714E-1,5.402135E-1,4.1295547E-2,4.753247E-1,-1.120463E-1,1.1086957E-1,3.052023E-1,-9.160305E-3,2.806084E-1,-1.3714287E-1,-1.6554509E-1,1.88862E-2,-1.7970297E-1,-4.7191016E-2,2.2977963E-1,4.2050666E-1,-3.264418E-3,3.818182E-1,-1.3803682E-1,-4.485374E-2,3.0439883E-1,-1.5E-1,2.3912048E-2,-1.309837E-1,-1.4553776E-1,-1.9447488E-1,3.6545455E-1,-7.9245284E-2,-1.20000005E-1,1.9436622E-1,4.3798107E-1,7.826087E-2,-9.421489E-2,4.2439026E-1,-3.0623818E-2,2.8308606E-1,2.960995E-1,-1.0736843E-1,-2.3487547E-2,-1.626571E-1,4.5306125E-1,-7.5E-2,3.5357144E-1,5.1428575E-2,-1.0419162E-1,2.1600002E-1],"split_indices":[28,11,11,14,17,28,28,17,27,27,11,24,17,14,11,11,11,11,17,11,14,27,23,33,17,28,28,11,11,17,28,33,27,17,17,17,13,33,17,12,12,12,11,17,24,16,0,11,17,11,12,33,33,24,8,17,12,17,17,28,16,24,11,0,0,0,0,0,0,0,0,0,0,0,0,0,0,0,0,0,0,0,0,0,0,0,0,0,0,0,0,0,0,0,0,0,0,0,0,0,0,0,0,0,0,0,0,0,0,0,0,0,0,0,0,0,0,0,0,0,0,0,0,0,0],"split_type":[0,0,0,0,0,0,0,0,0,0,0,0,0,0,0,0,0,0,0,0,0,0,0,0,0,0,0,0,0,0,0,0,0,0,0,0,0,0,0,0,0,0,0,0,0,0,0,0,0,0,0,0,0,0,0,0,0,0,0,0,0,0,0,0,0,0,0,0,0,0,0,0,0,0,0,0,0,0,0,0,0,0,0,0,0,0,0,0,0,0,0,0,0,0,0,0,0,0,0,0,0,0,0,0,0,0,0,0,0,0,0,0,0,0,0,0,0,0,0,0,0,0,0,0,0],"sum_hessian":[1.2619125E4,9.195375E3,3.42375E3,8.1495E3,1.045875E3,2.33625E3,1.0875E3,5.697375E3,2.452125E3,6.42E2,4.03875E2,1.002375E3,1.333875E3,9.01875E2,1.85625E2,5.39325E3,3.04125E2,9.1725E2,1.534875E3,2.10375E2,4.31625E2,1.90875E2,2.13E2,6.81375E2,3.21E2,1.249875E3,8.4E1,4.56375E2,4.455E2,1.17E2,6.8625E1,4.681875E3,7.11375E2,1.0125E2,2.02875E2,6.43125E2,2.74125E2,1.474125E3,6.075E1,1.41E2,6.9375E1,2.81625E2,1.5E2,4.8375E1,1.425E2,2.11125E2,1.875E0,4.15125E2,2.6625E2,2.76375E2,4.4625E1,5.085E2,7.41375E2,5.9625E1,2.4375E1,4.23E2,3.3375E1,2.145E2,2.31E2,1.0275E2,1.425E1,4.35E1,2.5125E1,4.1445E3,5.37375E2,2.29875E2,4.815E2,8.8125E1,1.3125E1,8.7375E1,1.155E2,5.3325E2,1.09875E2,2.36625E2,3.75E1,1.38825E3,8.5875E1,3.8625E1,2.2125E1,1.06875E2,3.4125E1,6.075E1,8.625E0,2.36625E2,4.5E1,8.55E1,6.45E1,3.1875E1,1.65E1,9.1875E1,5.0625E1,2.01E2,1.0125E1,2.08875E2,2.0625E2,2.2875E2,3.75E1,1.62E2,1.14375E2,4.1625E1,3E0,2.71875E2,2.36625E2,2.175E2,5.23875E2,5.4E1,5.625E0,1.65E1,7.875E0,3.9525E2,2.775E1,2.925E1,4.125E0,1.3125E2,8.325E1,2.20125E2,1.0875E1,3.4125E1,6.8625E1,1.125E1,3E0,2.7E1,1.65E1,1.9875E1,5.25E0],"tree_param":{"num_deleted":"0","num_feature":"54","num_nodes":"125","size_leaf_vector":"1"}},{"base_weights":[-2.6130882E-1,-7.079106E-2,-4.6710485E-1,6.745333E-2,-3.4021255E-1,-5.6494457E-1,-2.3567717E-1,1.4009175E-1,-5.0050867E-1,-4.543425E-1,-2.1183206E-1,-6.0602814E-1,-1.10029625E-2,-1.0742719E-1,-5.168142E-1,2.1912938E-1,-3.457249E-1,-5.5677235E-1,-7.6595746E-2,-5.183747E-1,-2.431942E-1,-5.9352517E-2,-3.8336715E-1,-6.316413E-1,-5.605284E-1,5.67297E-1,-3.6413044E-1,6.1898213E-2,-3.4653705E-1,-5.3162235E-1,-9.756097E-2,3.1420782E-1,6.1142396E-2,-4.5181283E-1,-2.764977E-2,-3.3911884E-1,-6.148772E-1,2.4390244E-1,-5.5497384E-1,-5.7550716E-1,-3.5567284E-1,-7.6595746E-2,-4.300868E-1,7.000376E-2,-2.5013897E-1,-4.3096617E-1,-1.4605068E-1,-6.455437E-1,-5.156321E-1,-5.353902E-1,-6.4097816E-1,7.7917415E-1,2.1714285E-1,-1.1392405E-1,-5.471698E-1,1.9490255E-2,5.2459013E-1,-4.5341614E-1,-1.667744E-1,-5.3786635E-1,-2.4299066E-1,3.3766234E-1,-4.4210526E-1,1.0113427E-1,1.6456636E-2,-2.6223386E-2,7.0204444E-2,-1.6999593E-1,-2.6086958E-2,3.0317275E-2,-1.4380166E-1,-5.1012147E-2,-1.9391635E-1,-1.8617648E-1,1.7647061E-1,-2.278481E-2,1.7956205E-1,-1.9120881E-1,1.7647061E-1,-1.1713148E-1,-1.75123E-1,-1.2588166E-1,3.652174E-2,1.599073E-2,-1.2750001E-1,-1.46281E-1,1.01298705E-1,3.370787E-2,-1.6300578E-1,-1.1232E-1,9.694793E-3,-1.3983683E-1,-6.3829795E-2,-6.2630484E-3,-1.32E-1,-1.9538392E-1,-1.3680431E-1,-1.8952538E-1,-1.4064838E-1,-1.6104221E-1,-1.7142858E-2,-1.9315986E-1,3.529412E-2,2.5375494E-1,3.0508475E-2,-4.4295304E-2,1.4066987E-1,5.89391E-3,-1.8778627E-1,-8.321168E-2,-1.7774686E-1,-4.9646823E-3,1.4344473E-1,1.8826187E-1,-1.2452831E-1,-1.4851485E-1,-5.6353595E-2,5.9405942E-3,-9.622642E-2,-9.041096E-2,-1.6355707E-1,-1.10204086E-1,1.7647061E-1,-9.4736844E-2,2.425532E-1,-1.7837839E-1,2.0689655E-2],"categories":[],"categories_nodes":[],"categories_segments":[],"categories_sizes":[],"default_left":[0,0,0,0,0,0,0,0,0,0,0,0,0,0,0,0,0,0,0,0,0,0,0,0,0,0,0,0,0,0,0,0,0,0,0,0,0,0,0,0,0,0,0,0,0,0,0,0,0,0,0,0,0,0,0,0,0,0,0,0,0,0,0,0,0,0,0,0,0,0,0,0,0,0,0,0,0,0,0,0,0,0,0,0,0,0,0,0,0,0,0,0,0,0,0,0,0,0,0,0,0,0,0,0,0,0,0,0,0,0,0,0,0,0,0,0,0,0,0,0,0,0,0,0,0,0,0],"id":2,"left_children":[1,3,5,7,9,11,13,15,17,19,21,23,25,27,29,31,33,35,37,39,41,43,45,47,49,51,53,55,57,59,61,63,65,67,69,71,73,75,77,79,81,83,85,87,89,91,93,95,97,99,101,103,105,107,109,111,113,115,117,119,121,123,125,-1,-1,-1,-1,-1,-1,-1,-1,-1,-1,-1,-1,-1,-1,-1,-1,-1,-1,-1,-1,-1,-1,-1,-1,-1,-1,-1,-1,-1,-1,-1,-1,-1,-1,-1,-1,-1,-1,-1,-1,-1,-1,-1,-1,-1,-1,-1,-1,-1,-1,-1,-1,-1,-1,-1,-1,-1,-1,-1,-1,-1,-1,-1,-1],"loss_changes":[4.9477423E2,2.4415192E2,1.372323E2,1.7881627E2,3.247348E1,9.701599E1,6.500268E1,1.4760489E2,1.1680077E1,1.5772125E1,2.7388306E1,4.27124E0,6.0526165E1,5.0240974E1,3.4558868E0,4.962758E1,1.8141739E1,5.277008E0,9.142869E0,8.174088E0,8.545031E0,1.3739271E1,5.5060043E0,3.749939E0,2.5657654E0,8.167873E0,8.364426E0,1.4254839E1,9.807003E0,8.5240173E-1,3.2233331E0,1.223819E1,3.1941725E1,1.6852211E1,7.9330955E0,4.7541437E0,2.708908E0,4.114814E0,2.6236496E0,7.8648376E-1,7.2810326E0,6.669787E0,5.8886585E0,8.68939E0,7.904792E0,3.0469666E0,3.0769753E0,2.156311E0,1.2031555E0,7.1621704E-1,8.149109E-1,3.0590363E0,4.087202E0,5.4152718E0,1.1317387E0,1.1033219E1,6.161623E0,3.4672318E0,5.56184E0,7.591095E-1,1.5986357E0,3.2167072E0,9.664593E-1,0E0,0E0,0E0,0E0,0E0,0E0,0E0,0E0,0E0,0E0,0E0,0E0,0E0,0E0,0E0,0E0,0E0,0E0,0E0,0E0,0E0,0E0,0E0,0E0,0E0,0E0,0E0,0E0,0E0,0E0,0E0,0E0,0E0,0E0,0E0,0E0,0E0,0E0,0E0,0E0,0E0,0E0,0E0,0E0,0E0,0E0,0E0,0E0,0E0,0E0,0E0,0E0,0E0,0E0,0E0,0E0,0E0,0E0,0E0,0E0,0E0,0E0,0E0,0E0],"parents":[2147483647,0,0,1,1,2,2,3,3,4,4,5,5,6,6,7,7,8,8,9,9,10,10,11,11,12,12,13,13,14,14,15,15,16,16,17,17,18,18,19,19,20,20,21,21,22,22,23,23,24,24,25,25,26,26,27,27,28,28,29,29,30,30,31,31,32,32,33,33,34,34,35,35,36,36,37,37,38,38,39,39,40,40,41,41,42,42,43,43,44,44,45,45,46,46,47,47,48,48,49,49,50,50,51,51,52,52,53,53,54,54,55,55,56,56,57,57,58,58,59,59,60,60,61,61,62,62],"right_children":[2,4,6,8,10,12,14,16,18,20,22,24,26,28,30,32,34,36,38,40,42,44,46,48,50,52,54,56,58,60,62,64,66,68,70,72,74,76,78,80,82,84,86,88,90,92,94,96,98,100,102,104,106,108,110,112,114,116,118,120,122,124,126,-1,-1,-1,-1,-1,-1,-1,-1,-1,-1,-1,-1,-1,-1,-1,-1,-1,-1,-1,-1,-1,-1,-1,-1,-1,-1,-1,-1,-1,-1,-1,-1,-1,-1,-1,-1,-1,-1,-1,-1,-1,-1,-1,-1,-1,-1,-1,-1,-1,-1,-1,-1,-1,-1,-1,-1,-1,-1,-1,-1,-1,-1,-1,-1],"split_conditions":[9.1E1,5.1E1,1E0,5E0,3E0,8.42E-1,3E0,7E0,4E0,3E0,8.3E1,4.5E1,1.3E1,5.1E1,7.65E-1,2.3E1,7E0,1.33E-1,7E0,7.52E2,8.6E1,2E0,4E0,9E0,1.05E2,8E0,2.7E1,2.35E-1,2.26E2,2E0,7.8E1,4E0,2E0,4.38E-1,1.7E1,7E0,2.4E1,2.4E1,1.8E1,1.2895E4,8.18E-1,4E0,2.318E3,6E0,2E-1,2.43E2,1E1,2.61E-1,1.8E1,6.92E-1,1.81E2,1E0,6.4E1,2E0,1E0,5.71E2,2.88E2,5.7E1,6.9E1,2E0,1E0,2.3E1,2.18E2,1.0113427E-1,1.6456636E-2,-2.6223386E-2,7.0204444E-2,-1.6999593E-1,-2.6086958E-2,3.0317275E-2,-1.4380166E-1,-5.1012147E-2,-1.9391635E-1,-1.8617648E-1,1.7647061E-1,-2.278481E-2,1.7956205E-1,-1.9120881E-1,1.7647061E-1,-1.1713148E-1,-1.75123E-1,-1.2588166E-1,3.652174E-2,1.599073E-2,-1.2750001E-1,-1.46281E-1,1.01298705E-1,3.370787E-2,-1.6300578E-1,-1.1232E-1,9.694793E-3,-1.3983683E-1,-6.3829795E-2,-6.2630484E-3,-1.32E-1,-1.9538392E-1,-1.3680431E-1,-1.8952538E-1,-1.4064838E-1,-1.6104221E-1,-1.7142858E-2,-1.9315986E-1,3.529412E-2,2.5375494E-1,3.0508475E-2,-4.4295304E-2,1.4066987E-1,5.89391E-3,-1.8778627E-1,-8.321168E-2,-1.7774686E-1,-4.9646823E-3,1.4344473E-1,1.8826187E-1,-1.2452831E-1,-1.4851485E-1,-5.6353595E-2,5.9405942E-3,-9.622642E-2,-9.041096E-2,-1.6355707E-1,-1.10204086E-1,1.7647061E-1,-9.4736844E-2,2.425532E-1,-1.7837839E-1,2.0689655E-2],"split_indices":[27,11,14,28,14,33,17,17,17,28,11,11,11,11,33,11,14,33,28,13,11,17,28,17,11,11,11,33,13,25,30,28,28,33,17,28,9,11,17,29,33,17,13,28,33,13,17,33,11,1,12,4,13,17,9,13,13,24,11,12,50,24,30,0,0,0,0,0,0,0,0,0,0,0,0,0,0,0,0,0,0,0,0,0,0,0,0,0,0,0,0,0,0,0,0,0,0,0,0,0,0,0,0,0,0,0,0,0,0,0,0,0,0,0,0,0,0,0,0,0,0,0,0,0,0,0,0],"split_type":[0,0,0,0,0,0,0,0,0,0,0,0,0,0,0,0,0,0,0,0,0,0,0,0,0,0,0,0,0,0,0,0,0,0,0,0,0,0,0,0,0,0,0,0,0,0,0,0,0,0,0,0,0,0,0,0,0,0,0,0,0,0,0,0,0,0,0,0,0,0,0,0,0,0,0,0,0,0,0,0,0,0,0,0,0,0,0,0,0,0,0,0,0,0,0,0,0,0,0,0,0,0,0,0,0,0,0,0,0,0,0,0,0,0,0,0,0,0,0,0,0,0,0,0,0,0,0],"sum_hessian":[1.2619125E4,6.5535E3,6.065625E3,4.331625E3,2.221875E3,4.26225E3,1.803375E3,3.841125E3,4.905E2,1.174875E3,1.047E3,3.967875E3,2.94375E2,1.239375E3,5.64E2,3.304125E3,5.37E2,4.3275E2,5.775E1,9.00375E2,2.745E2,5.55E2,4.92E2,2.5305E3,1.437375E3,1.11375E2,1.83E2,7.26E2,5.13375E2,5.445E2,1.95E1,2.062125E3,1.242E3,4.02375E2,1.34625E2,9.2625E1,3.40125E2,3.4875E1,2.2875E1,6.645E2,2.35875E2,1.45875E2,1.28625E2,3.31125E2,2.23875E2,4.09125E2,8.2875E1,2.255625E3,2.74875E2,1.101E3,3.36375E2,6.8625E1,4.275E1,7.8E1,1.05E2,6.66E2,6E1,3.21E2,1.92375E2,5.32125E2,1.2375E1,8.625E0,1.0875E1,1.8945E3,1.67625E2,6.6825E2,5.7375E2,3.05625E2,9.675E1,1.05375E2,2.925E1,6.075E1,3.1875E1,3.39E2,1.125E0,1.875E1,1.6125E1,2.175E1,1.125E0,3.0375E1,6.34125E2,2.08125E2,2.775E1,1.06875E2,3.9E1,1.2E2,8.625E0,3.105E2,2.0625E1,1.5525E2,6.8625E1,3.51375E2,5.775E1,5.8875E1,2.4E1,2.187E3,6.8625E1,7.5375E1,1.995E2,1.097625E3,3.375E0,3.3525E2,1.125E0,6.225E1,6.375E0,1.7625E1,2.5125E1,6.2625E1,1.5375E1,1.6125E1,8.8875E1,6.18375E2,4.7625E1,5.4375E1,5.625E0,2.7675E2,4.425E1,8.7375E1,1.05E2,1.725E1,5.14875E2,1.125E1,1.125E0,3.75E0,4.875E0,8.25E0,2.625E0],"tree_param":{"num_deleted":"0","num_feature":"54","num_nodes":"127","size_leaf_vector":"1"}},{"base_weights":[-3.310387E-1,-4.7490767E-1,1.1559098E0,-5.748189E-1,-7.730983E-2,1.4853431E0,3.545664E-1,-6.529114E-1,-4.0476397E-1,-3.0316782E-1,2.9009366E-1,9.783623E-1,1.7839475E0,2.672148E-2,1.3053892E0,-1.9959405E-1,-5.4138E-1,-4.5362648E-1,2.0874636E-1,-1.1301563E-3,-5.6316984E-1,6.074138E-1,-3.1052846E-1,1.1045872E0,-5.5135137E-1,1.8628198E0,7.567568E-1,-3.0716723E-1,5.268542E-1,1.5620438E0,1.25E-1,-4.2947525E-1,-1.9933556E-1,-2.7005455E-1,-5.522281E-1,5.4407585E-1,-3.233533E-1,-3.8964579E-1,4.7795045E-1,-3.5989717E-1,-6.3080263E-1,7.8057647E-1,-2.6493508E-1,-3.6610168E-1,1.1910112E0,8.8646567E-1,1.6311606E0,-5.9090906E-1,3.529412E-2,1.5994865E0,1.92835E0,2.9441625E-1,1.5514019E0,-3.9097744E-1,4.827586E-1,1E0,-2.5165564E-1,1.68E0,2.857143E-1,-3.255814E-1,8.8E-1,-1.9354839E-2,-1.677094E-1,-2.4436742E-2,-1.7057408E-1,-1.681042E-1,7.3972605E-2,2.5305516E-1,6.122449E-3,-1.2531646E-1,3.2727274E-1,-1.675621E-1,-1.2976313E-2,7.157585E-2,2.3685743E-1,-1.7226437E-1,-1.4040562E-2,-1.6132075E-1,-1.9511938E-1,1.8640381E-1,3.8538715E-1,-1.0097358E-1,1.9322036E-1,-6.0458653E-2,-1.8536061E-1,4.3783784E-1,-2.6086958E-2,1.0382848E-1,3.794311E-1,3.529412E-2,4.9548388E-1,-1.9041917E-1,3.529412E-2,3.7791047E-1,5.469027E-1,5.808666E-1,1.3846155E-1,2.0869567E-1,-1.5929203E-2,5.242106E-1,-0E0,2.3346303E-3,-1.5386504E-1,-9.152542E-2,3.415385E-1,3.8498792E-1,-1.5180725E-1,2.278481E-2,-1.7368421E-1,3.9661017E-1,5.8235294E-1,-1.5E-1,3E-1,-1.7142859E-1,3.157895E-2,-0E0,3.4736842E-1],"categories":[],"categories_nodes":[],"categories_segments":[],"categories_sizes":[],"default_left":[0,0,0,0,0,0,0,0,0,0,0,0,0,0,0,0,0,0,0,0,0,0,0,0,0,0,0,0,0,0,0,0,0,0,0,0,0,0,0,0,0,0,0,0,0,0,0,0,0,0,0,0,0,0,0,0,0,0,0,0,0,0,0,0,0,0,0,0,0,0,0,0,0,0,0,0,0,0,0,0,0,0,0,0,0,0,0,0,0,0,0,0,0,0,0,0,0,0,0,0,0,0,0,0,0,0,0,0,0,0,0,0,0,0,0,0,0],"id":3,"left_children":[1,3,5,7,9,11,13,15,17,19,21,23,25,27,29,-1,31,33,35,37,39,41,43,45,47,49,51,53,55,57,59,61,-1,63,65,67,69,71,73,75,77,79,81,83,85,87,89,91,-1,93,95,97,99,101,103,105,107,109,111,113,115,-1,-1,-1,-1,-1,-1,-1,-1,-1,-1,-1,-1,-1,-1,-1,-1,-1,-1,-1,-1,-1,-1,-1,-1,-1,-1,-1,-1,-1,-1,-1,-1,-1,-1,-1,-1,-1,-1,-1,-1,-1,-1,-1,-1,-1,-1,-1,-1,-1,-1,-1,-1,-1,-1,-1,-1],"loss_changes":[2.700318E3,4.570852E2,2.9345825E2,1.2186377E2,1.9195042E2,1.1767993E2,1.015087E2,8.354736E0,8.6932434E1,1.12484375E2,1.6805032E2,5.7497528E1,3.8713867E1,4.0781826E1,2.5101257E1,0E0,8.472107E0,4.8421326E1,3.8426582E1,1.2370695E2,1.0355423E1,8.7310745E1,2.5897308E1,2.985257E1,6.8149996E-1,4.840576E0,1.3136917E1,9.887612E0,3.6257736E1,9.832733E0,5.729535E0,1.5844994E1,0E0,5.2856056E1,1.1454041E1,2.0661804E1,1.1599726E1,2.144667E1,2.2008438E1,1.3024418E1,7.0114136E-1,3.7836823E1,6.4849806E0,1.2098515E1,3.9435444E0,3.939952E1,2.2395172E0,7.577734E-1,0E0,5.0991516E0,3.2962646E0,3.4705229E0,4.066307E0,6.4692764E0,7.837899E0,2.6674782E1,4.0916166E0,3.2769775E0,4.428571E0,1.1988112E0,1.5284209E0,0E0,0E0,0E0,0E0,0E0,0E0,0E0,0E0,0E0,0E0,0E0,0E0,0E0,0E0,0E0,0E0,0E0,0E0,0E0,0E0,0E0,0E0,0E0,0E0,0E0,0E0,0E0,0E0,0E0,0E0,0E0,0E0,0E0,0E0,0E0,0E0,0E0,0E0,0E0,0E0,0E0,0E0,0E0,0E0,0E0,0E0,0E0,0E0,0E0,0E0,0E0,0E0,0E0,0E0,0E0,0E0],"parents":[2147483647,0,0,1,1,2,2,3,3,4,4,5,5,6,6,7,7,8,8,9,9,10,10,11,11,12,12,13,13,14,14,16,16,17,17,18,18,19,19,20,20,21,21,22,22,23,23,24,24,25,25,26,26,27,27,28,28,29,29,30,30,31,31,33,33,34,34,35,35,36,36,37,37,38,38,39,39,40,40,41,41,42,42,43,43,44,44,45,45,46,46,47,47,49,49,50,50,51,51,52,52,53,53,54,54,55,55,56,56,57,57,58,58,59,59,60,60],"right_children":[2,4,6,8,10,12,14,16,18,20,22,24,26,28,30,-1,32,34,36,38,40,42,44,46,48,50,52,54,56,58,60,62,-1,64,66,68,70,72,74,76,78,80,82,84,86,88,90,92,-1,94,96,98,100,102,104,106,108,110,112,114,116,-1,-1,-1,-1,-1,-1,-1,-1,-1,-1,-1,-1,-1,-1,-1,-1,-1,-1,-1,-1,-1,-1,-1,-1,-1,-1,-1,-1,-1,-1,-1,-1,-1,-1,-1,-1,-1,-1,-1,-1,-1,-1,-1,-1,-1,-1,-1,-1,-1,-1,-1,-1,-1,-1,-1,-1],"split_conditions":[4E0,2E0,5.2E1,1E0,1E0,5E0,7E0,8.89E-1,8.42E-1,1.9E1,6.1E1,1E1,8E0,1.6E1,1.3E2,-1.9959405E-1,8.9E1,8.5E1,5.1E1,3.85E-1,3E1,6E0,5.4E1,1E0,5E0,1.33E-1,7E0,4.9E1,8.9E1,1.2E1,8.89E-1,1E1,-1.9933556E-1,6E1,5.16E2,9.8E1,6.64E2,3E0,3E0,3.53E-1,4E1,9.41E-1,4.05E2,7E0,3E0,4.38E-1,2.1E1,3.01E2,3.529412E-2,6E0,2.3E1,2.4E1,5E0,6.4E1,5E0,1.1E1,1E0,9E0,1E0,2.67E-1,2E0,-1.9354839E-2,-1.677094E-1,-2.4436742E-2,-1.7057408E-1,-1.681042E-1,7.3972605E-2,2.5305516E-1,6.122449E-3,-1.2531646E-1,3.2727274E-1,-1.675621E-1,-1.2976313E-2,7.157585E-2,2.3685743E-1,-1.7226437E-1,-1.4040562E-2,-1.6132075E-1,-1.9511938E-1,1.8640381E-1,3.8538715E-1,-1.0097358E-1,1.9322036E-1,-6.0458653E-2,-1.8536061E-1,4.3783784E-1,-2.6086958E-2,1.0382848E-1,3.794311E-1,3.529412E-2,4.9548388E-1,-1.9041917E-1,3.529412E-2,3.7791047E-1,5.469027E-1,5.808666E-1,1.3846155E-1,2.0869567E-1,-1.5929203E-2,5.242106E-1,-0E0,2.3346303E-3,-1.5386504E-1,-9.152542E-2,3.415385E-1,3.8498792E-1,-1.5180725E-1,2.278481E-2,-1.7368421E-1,3.9661017E-1,5.8235294E-1,-1.5E-1,3E-1,-1.7142859E-1,3.157895E-2,-0E0,3.4736842E-1],"split_indices":[28,28,11,14,14,28,28,33,33,11,11,17,17,24,11,0,27,27,11,33,11,17,12,14,4,33,28,12,11,17,33,11,0,11,14,27,13,28,28,33,11,33,13,17,17,33,13,30,0,28,9,11,8,11,28,17,17,28,14,34,8,0,0,0,0,0,0,0,0,0,0,0,0,0,0,0,0,0,0,0,0,0,0,0,0,0,0,0,0,0,0,0,0,0,0,0,0,0,0,0,0,0,0,0,0,0,0,0,0,0,0,0,0,0,0,0,0],"split_type":[0,0,0,0,0,0,0,0,0,0,0,0,0,0,0,0,0,0,0,0,0,0,0,0,0,0,0,0,0,0,0,0,0,0,0,0,0,0,0,0,0,0,0,0,0,0,0,0,0,0,0,0,0,0,0,0,0,0,0,0,0,0,0,0,0,0,0,0,0,0,0,0,0,0,0,0,0,0,0,0,0,0,0,0,0,0,0,0,0,0,0,0,0,0,0,0,0,0,0,0,0,0,0,0,0,0,0,0,0,0,0,0,0,0,0,0,0],"sum_hessian":[1.2619125E4,1.15065E4,1.112625E3,9.195375E3,2.311125E3,7.87875E2,3.2475E2,6.299625E3,2.89575E3,1.431375E3,8.7975E2,2.93625E2,4.9425E2,2.4225E2,8.25E1,5.66475E3,6.34875E2,2.682375E3,2.13375E2,6.62625E2,7.6875E2,5.75625E2,3.04125E2,2.715E2,2.2125E1,4.5825E2,3.6E1,1.455E2,9.675E1,6.75E1,1.5E1,3.34875E2,3E2,9.38625E2,1.74375E3,1.30875E2,8.25E1,3.66E2,2.96625E2,1.935E2,5.7525E2,4.80375E2,9.525E1,2.94E2,1.0125E1,1.93875E2,7.7625E1,2.1E1,1.125E0,9.6375E1,3.61875E2,2.3625E1,1.2375E1,1.32E2,1.35E1,6E1,3.675E1,6.15E1,6E0,9.75E0,5.25E0,8.8125E1,2.4675E2,5.76E2,3.62625E2,1.7265E3,1.725E1,8.2875E1,4.8E1,7.8E1,4.5E0,2.45625E2,1.20375E2,1.6875E2,1.27875E2,1.14375E2,7.9125E1,1.05E2,4.7025E2,3.6675E2,1.13625E2,8.8875E1,6.375E0,1.78875E2,1.15125E2,8.25E0,1.875E0,8.0625E1,1.1325E2,1.125E0,7.65E1,1.9875E1,1.125E0,4.0875E1,5.55E1,3.59625E2,2.25E0,1.05E1,1.3125E1,1.0875E1,1.5E0,3.1125E1,1.00875E2,6.375E0,7.125E0,5.0625E1,9.375E0,1.875E1,1.8E1,2.85E1,3.3E1,3E0,3E0,6E0,3.75E0,1.5E0,3.75E0],"tree_param":{"num_deleted":"0","num_feature":"54","num_nodes":"117","size_leaf_vector":"1"}},{"base_weights":[-3.117258E-1,-4.9663103E-1,4.689473E-1,-5.494417E-1,3.3878717E-1,1.307435E-1,7.6229274E-1,-5.6927943E-1,2.4003591E-2,-1.6863342E-2,7.2125757E-1,-1.7221138E-1,6.404342E-1,4.9005884E-1,9.650219E-1,-6.002672E-1,-3.530509E-1,2.3523092E-1,-5.3693676E-1,-2.413434E-1,6.102408E-1,9.3412346E-1,3.8184223E-1,-4.1032213E-1,3.8891962E-1,2.4508317E-1,9.501992E-1,7.2770834E-1,3.9000165E-2,1.0885844E0,7.702896E-1,-6.1449426E-1,-4.4942847E-1,-5.638574E-1,-1.0263517E-1,6.063661E-2,1.001926E0,-5.6096816E-1,1.605545E-1,-6.7974895E-2,-5.477317E-1,3.3850467E-1,1.1517813E0,2.566885E-1,1.092673E0,2.5580568E-2,8.7069035E-1,-2.7929622E-1,-6.126234E-1,6.0330415E-1,-2.4713507E-1,6.433696E-1,-1.19359724E-1,1.2312373E0,7.442836E-1,5.2729094E-1,1.180267E0,-3.0707923E-1,9.4940794E-1,1.1662817E0,6.930521E-1,4.9795106E-1,1.0171139E0,-1.8629381E-1,-1.6945954E-1,-1.8331692E-1,-7.977032E-2,-1.8074042E-1,-1.1501765E-1,5.9918772E-2,-1.659766E-1,-6.077751E-2,1.4321221E-1,-4.8579043E-3,3.2760173E-1,7.876539E-2,-1.7530917E-1,-1.2648067E-1,8.848097E-2,-1.6791786E-1,4.8861455E-2,1.4312224E-1,-1.3927856E-1,2.2363089E-1,3.7874463E-1,4.1001596E-2,3.4588656E-1,3.3597577E-1,8.7161124E-2,-6.0131006E-2,1.7507483E-1,-6.202541E-2,2.797862E-1,-3.2546807E-2,-1.7712751E-1,-1.7610306E-2,-1.853864E-1,2.426006E-1,-4.1875042E-2,-1.1632276E-1,1.495694E-1,2.6260448E-1,-9.512603E-2,-1.09028384E-1,3.1840068E-1,3.7863845E-1,-1.1621853E-1,1.6152821E-1,3.335513E-1,9.9435724E-2,2.8136048E-1,3.6551157E-1,1.1650657E-1,-1.1298843E-1,6.6154055E-2,3.0624437E-1,-6.332233E-2,3.536864E-1,1.8259187E-1,-7.5489074E-2,3.2303092E-1,5.880544E-2,2.7043405E-1,3.1493723E-1,1.918717E-2],"categories":[],"categories_nodes":[],"categories_segments":[],"categories_sizes":[],"default_left":[0,0,0,0,0,0,0,0,0,0,0,0,0,0,0,0,0,0,0,0,0,0,0,0,0,0,0,0,0,0,0,0,0,0,0,0,0,0,0,0,0,0,0,0,0,0,0,0,0,0,0,0,0,0,0,0,0,0,0,0,0,0,0,0,0,0,0,0,0,0,0,0,0,0,0,0,0,0,0,0,0,0,0,0,0,0,0,0,0,0,0,0,0,0,0,0,0,0,0,0,0,0,0,0,0,0,0,0,0,0,0,0,0,0,0,0,0,0,0,0,0,0,0,0,0],"id":4,"left_children":[1,3,5,7,9,11,13,15,17,19,21,23,25,27,29,31,33,35,37,39,41,43,45,47,49,51,53,55,57,59,61,63,65,67,69,71,73,75,-1,77,79,81,83,85,87,89,91,93,95,97,99,101,103,105,107,109,111,113,115,117,119,121,123,-1,-1,-1,-1,-1,-1,-1,-1,-1,-1,-1,-1,-1,-1,-1,-1,-1,-1,-1,-1,-1,-1,-1,-1,-1,-1,-1,-1,-1,-1,-1,-1,-1,-1,-1,-1,-1,-1,-1,-1,-1,-1,-1,-1,-1,-1,-1,-1,-1,-1,-1,-1,-1,-1,-1,-1,-1,-1,-1,-1,-1,-1],"loss_changes":[1.6480411E3,4.07396E2,2.168255E2,9.877222E1,7.474306E1,1.5711938E2,6.413782E1,5.601245E1,3.4634346E1,4.0359207E1,1.8770447E1,8.5474556E1,4.6215973E1,5.3753403E1,1.5282288E1,1.5471436E1,5.5594406E1,2.8353504E1,2.3607178E0,1.1174399E1,1.0732487E1,1.7120209E1,1.8042862E1,1.1724731E1,2.6159155E1,2.4457968E1,1.1370026E1,2.9176407E1,5.5172417E1,1.171405E1,1.7206375E1,1.8063965E0,1.8708755E1,3.755783E0,6.592975E1,1.9179585E1,3.6226845E0,1.6698971E0,0E0,1.7569983E1,7.400627E-1,5.9774857E0,1.7616272E-1,3.2880733E0,2.537094E0,7.8141303E0,3.1085663E0,1.4508425E1,4.8221588E-1,2.1921917E1,5.3093843E0,1.8194344E1,2.5904524E1,4.9015503E0,8.863831E0,1.8143227E1,2.5453644E0,4.741791E0,4.2113304E0,1.678833E0,2.541528E1,1.5324463E1,4.208252E0,0E0,0E0,0E0,0E0,0E0,0E0,0E0,0E0,0E0,0E0,0E0,0E0,0E0,0E0,0E0,0E0,0E0,0E0,0E0,0E0,0E0,0E0,0E0,0E0,0E0,0E0,0E0,0E0,0E0,0E0,0E0,0E0,0E0,0E0,0E0,0E0,0E0,0E0,0E0,0E0,0E0,0E0,0E0,0E0,0E0,0E0,0E0,0E0,0E0,0E0,0E0,0E0,0E0,0E0,0E0,0E0,0E0,0E0,0E0,0E0,0E0,0E0],"parents":[2147483647,0,0,1,1,2,2,3,3,4,4,5,5,6,6,7,7,8,8,9,9,10,10,11,11,12,12,13,13,14,14,15,15,16,16,17,17,18,18,19,19,20,20,21,21,22,22,23,23,24,24,25,25,26,26,27,27,28,28,29,29,30,30,31,31,32,32,33,33,34,34,35,35,36,36,37,37,39,39,40,40,41,41,42,42,43,43,44,44,45,45,46,46,47,47,48,48,49,49,50,50,51,51,52,52,53,53,54,54,55,55,56,56,57,57,58,58,59,59,60,60,61,61,62,62],"right_children":[2,4,6,8,10,12,14,16,18,20,22,24,26,28,30,32,34,36,38,40,42,44,46,48,50,52,54,56,58,60,62,64,66,68,70,72,74,76,-1,78,80,82,84,86,88,90,92,94,96,98,100,102,104,106,108,110,112,114,116,118,120,122,124,-1,-1,-1,-1,-1,-1,-1,-1,-1,-1,-1,-1,-1,-1,-1,-1,-1,-1,-1,-1,-1,-1,-1,-1,-1,-1,-1,-1,-1,-1,-1,-1,-1,-1,-1,-1,-1,-1,-1,-1,-1,-1,-1,-1,-1,-1,-1,-1,-1,-1,-1,-1,-1,-1,-1,-1,-1,-1,-1,-1,-1,-1],"split_conditions":[8.5E1,1.4E1,9.1E1,1.357E3,1.08E2,7E0,1.09E2,6.1E1,8E0,2.8E1,1E0,1.44E2,1.14E2,1E0,1E0,9E0,1.02E2,1E0,2.882E3,4E0,4.2E1,3E1,2.4E1,8E0,3E0,1E0,1E0,7E0,1.3E1,5.6E1,6E0,4.8E1,1.15E2,8E0,1E0,6.7E1,4.6E1,2.6E1,1.605545E-1,4.6E1,3.47E2,4E0,4.5E1,4.1E4,4.12E-1,6.8E1,3E0,1.33E-1,2.5E1,2.7E1,1.9E2,3E0,2.9E1,7E0,2.3E1,1.287E3,2.08E-1,1.595E3,5.19E-1,4.38E-1,6.04E2,1.56E2,3.3E2,-1.8629381E-1,-1.6945954E-1,-1.8331692E-1,-7.977032E-2,-1.8074042E-1,-1.1501765E-1,5.9918772E-2,-1.659766E-1,-6.077751E-2,1.4321221E-1,-4.8579043E-3,3.2760173E-1,7.876539E-2,-1.7530917E-1,-1.2648067E-1,8.848097E-2,-1.6791786E-1,4.8861455E-2,1.4312224E-1,-1.3927856E-1,2.2363089E-1,3.7874463E-1,4.1001596E-2,3.4588656E-1,3.3597577E-1,8.7161124E-2,-6.0131006E-2,1.7507483E-1,-6.202541E-2,2.797862E-1,-3.2546807E-2,-1.7712751E-1,-1.7610306E-2,-1.853864E-1,2.426006E-1,-4.1875042E-2,-1.1632276E-1,1.495694E-1,2.6260448E-1,-9.512603E-2,-1.09028384E-1,3.1840068E-1,3.7863845E-1,-1.1621853E-1,1.6152821E-1,3.335513E-1,9.9435724E-2,2.8136048E-1,3.6551157E-1,1.1650657E-1,-1.1298843E-1,6.6154055E-2,3.0624437E-1,-6.332233E-2,3.536864E-1,1.8259187E-1,-7.5489074E-2,3.2303092E-1,5.880544E-2,2.7043405E-1,3.1493723E-1,1.918717E-2],"split_indices":[11,17,27,27,27,17,11,11,24,17,14,11,11,14,14,17,27,17,27,24,17,11,17,14,28,14,14,17,17,12,17,11,27,17,14,11,11,13,0,11,30,28,17,29,33,11,14,33,30,12,11,28,17,28,17,27,33,27,33,0,27,11,14,0,0,0,0,0,0,0,0,0,0,0,0,0,0,0,0,0,0,0,0,0,0,0,0,0,0,0,0,0,0,0,0,0,0,0,0,0,0,0,0,0,0,0,0,0,0,0,0,0,0,0,0,0,0,0,0,0,0,0,0,0,0],"split_type":[0,0,0,0,0,0,0,0,0,0,0,0,0,0,0,0,0,0,0,0,0,0,0,0,0,0,0,0,0,0,0,0,0,0,0,0,0,0,0,0,0,0,0,0,0,0,0,0,0,0,0,0,0,0,0,0,0,0,0,0,0,0,0,0,0,0,0,0,0,0,0,0,0,0,0,0,0,0,0,0,0,0,0,0,0,0,0,0,0,0,0,0,0,0,0,0,0,0,0,0,0,0,0,0,0,0,0,0,0,0,0,0,0,0,0,0,0,0,0,0,0,0,0,0,0],"sum_hessian":[1.1414323E4,9.228811E3,2.1855132E3,8.680423E3,5.483877E2,1.0158107E3,1.1697025E3,8.390181E3,2.9024167E2,2.846521E2,2.6373563E2,6.37531E2,3.782797E2,5.0072433E2,6.689782E2,7.336946E3,1.0532351E3,2.1126755E2,7.897413E1,2.1006998E2,7.4582115E1,1.610071E2,1.0272852E2,4.4778595E2,1.8974507E2,1.669692E2,2.113105E2,3.275399E2,1.7318445E2,4.0647168E2,2.625065E2,6.7017617E3,6.3518384E2,5.711633E2,4.8207178E2,1.7295969E2,3.8307865E1,7.770905E1,1.2650764E0,1.3493785E2,7.513213E1,5.0744457E1,2.3837662E1,3.1032663E1,1.2997444E2,6.0031345E1,4.269718E1,2.7321283E2,1.7457312E2,1.4195134E2,4.7793728E1,7.941455E1,8.755464E1,8.7250206E1,1.240603E2,2.2850894E2,9.903096E1,1.2596372E2,4.722073E1,3.381063E2,6.836538E1,1.26237404E2,1.362691E2,5.9170625E3,7.846992E2,3.365039E2,2.986799E2,4.6857333E2,1.02589966E2,2.8882684E2,1.9324495E2,1.06318474E2,6.664121E1,3.1805243E0,3.512734E1,1.8642948E0,7.584476E1,6.826121E1,6.6676636E1,7.40938E1,1.0383308E0,4.36206E1,7.1238537E0,6.759522E0,1.707814E1,2.8384293E1,2.6483696E0,1.2532145E2,4.6529884E0,4.318157E1,1.684978E1,2.1936867E0,4.0503494E1,1.7725188E2,9.596097E1,1.778685E0,1.7279443E2,1.1113934E2,3.0812002E1,4.061541E1,7.178321E0,6.403647E1,1.5378085E1,7.312976E1,1.4424877E1,8.583238E1,1.4178238E0,8.110222E1,4.2958084E1,1.559369E2,7.2572044E1,9.397079E1,5.0601726E0,1.11545586E2,1.4418136E1,4.459695E1,2.6237795E0,3.2950388E2,8.602423E0,1.9847248E1,4.8518135E1,7.305596E1,5.3181446E1,1.3165425E2,4.6148524E0],"tree_param":{"num_deleted":"0","num_feature":"54","num_nodes":"125","size_leaf_vector":"1"}},{"base_weights":[6.40445E-1,7.4116874E-1,-5.3367186E-2,8.00054E-1,1.9550486E-2,-2.7199203E-1,4.9624634E-1,8.854956E-1,5.666735E-1,2.3572262E-1,-3.392419E-1,-3.7693787E-1,3.664477E-1,6.245136E-1,-3.535007E-2,9.122111E-1,1.17970146E-1,3.131113E-1,7.743037E-1,5.723966E-1,-9.8951824E-2,-5.7591665E-1,-9.886945E-2,-1.6159451E-1,-5.452537E-1,5.161735E-1,-3.982867E-1,8.656767E-1,3.7870893E-1,-1.6801086E-1,8.1795776E-1,9.6246517E-1,5.38911E-1,5.1385576E-1,-2.814152E-1,2.4731522E-2,6.471598E-1,8.0298245E-1,-5.9732962E-2,7.102123E-1,-5.2423615E-2,-3.066242E-1,4.0028685E-1,-5.902369E-1,-1.3221233E-1,2.5799355E-1,-4.2904058E-1,3.430767E-2,-4.137217E-1,-4.3291432E-1,-6.0907704E-1,7.167998E-1,4.7178864E-3,-5.286275E-1,1.438191E-1,9.381936E-1,2.5664583E-1,1.17559694E-1,6.469083E-1,-4.3639967E-1,3.8563535E-1,1.1817561E0,1.8707277E-1,3.0785394E-1,1.9470803E-1,5.8234263E-2,2.7512023E-1,2.8034115E-1,7.5778593E-3,1.8579818E-2,-1.4551812E-1,-3.498837E-2,1.7892252E-1,2.2763896E-1,-1.1363206E-2,2.18994E-1,2.975923E-1,6.6022955E-2,-1.5486678E-1,1.5208276E-1,3.289943E-1,-9.326047E-2,2.0342162E-1,-1.1283331E-1,2.1932735E-1,2.0897599E-1,-4.242309E-2,-1.8234183E-1,-6.375429E-2,1.0638635E-1,-1.4866792E-1,1.2309089E-1,-1.2734672E-1,7.295503E-2,-1.440477E-1,8.023756E-2,-1.2329921E-1,-1.6818646E-1,-9.751452E-4,-1.7963473E-1,-9.113769E-2,-1.8340608E-1,3.5201326E-2,2.5967047E-1,1.0193528E-1,-1.647237E-1,6.997076E-2,2.113856E-2,-1.6937385E-1,2.8962556E-1,-6.231817E-2,2.9640535E-1,-1.33182E-1,-1.4725657E-1,1.4918454E-1,-4.4556964E-2,2.2834864E-1,1.4923404E-1,3.5889986E-1,2.9194396E-2,-1.651521E-1,1.9471502E-1,-4.631354E-2,4.0583175E-1,1.3458367E-1,1.7431518E-1,-1.3788249E-1],"categories":[],"categories_nodes":[],"categories_segments":[],"categories_sizes":[],"default_left":[0,0,0,0,0,0,0,0,0,0,0,0,0,0,0,0,0,0,0,0,0,0,0,0,0,0,0,0,0,0,0,0,0,0,0,0,0,0,0,0,0,0,0,0,0,0,0,0,0,0,0,0,0,0,0,0,0,0,0,0,0,0,0,0,0,0,0,0,0,0,0,0,0,0,0,0,0,0,0,0,0,0,0,0,0,0,0,0,0,0,0,0,0,0,0,0,0,0,0,0,0,0,0,0,0,0,0,0,0,0,0,0,0,0,0,0,0,0,0,0,0,0,0,0,0,0,0],"id":5,"left_children":[1,3,5,7,9,11,13,15,17,19,21,23,25,27,29,31,33,35,37,39,41,43,45,47,49,51,53,55,57,59,61,63,65,67,69,71,73,75,77,79,81,83,85,87,89,91,93,95,97,99,101,103,105,107,109,111,113,115,117,119,121,123,125,-1,-1,-1,-1,-1,-1,-1,-1,-1,-1,-1,-1,-1,-1,-1,-1,-1,-1,-1,-1,-1,-1,-1,-1,-1,-1,-1,-1,-1,-1,-1,-1,-1,-1,-1,-1,-1,-1,-1,-1,-1,-1,-1,-1,-1,-1,-1,-1,-1,-1,-1,-1,-1,-1,-1,-1,-1,-1,-1,-1,-1,-1,-1,-1],"loss_changes":[1.01532324E3,5.390708E2,2.2155084E2,2.3338818E2,7.439625E1,8.850936E1,3.5802597E1,1.7591016E2,1.6539398E2,6.749448E1,2.0460835E1,4.0986847E1,2.1583502E1,2.4735092E1,1.1791277E1,1.5510059E2,4.5979805E1,1.3659256E2,4.140564E1,2.5742043E1,3.1329739E1,1.0753288E0,2.1335573E1,2.4640472E1,4.293869E0,1.6062675E1,2.2759137E0,9.150299E0,1.4713675E1,1.3530725E1,2.9971895E0,1.4531738E2,1.2844928E2,2.9968235E1,1.0165437E1,6.1656967E1,5.0271545E1,2.23396E1,7.5742283E0,1.8660378E1,1.0570814E1,1.5643938E1,1.4360882E1,1.0358658E0,1.4075756E0,9.237865E0,3.3449535E0,2.9336273E1,1.3148277E1,4.824421E0,7.380066E-1,6.0130844E0,5.838131E0,5.849881E-1,2.1706157E0,1.3497528E1,4.5612984E0,1.8643965E1,7.9412117E0,3.7706728E0,4.3521705E0,4.8462296E-1,1.8763678E0,0E0,0E0,0E0,0E0,0E0,0E0,0E0,0E0,0E0,0E0,0E0,0E0,0E0,0E0,0E0,0E0,0E0,0E0,0E0,0E0,0E0,0E0,0E0,0E0,0E0,0E0,0E0,0E0,0E0,0E0,0E0,0E0,0E0,0E0,0E0,0E0,0E0,0E0,0E0,0E0,0E0,0E0,0E0,0E0,0E0,0E0,0E0,0E0,0E0,0E0,0E0,0E0,0E0,0E0,0E0,0E0,0E0,0E0,0E0,0E0,0E0,0E0,0E0,0E0],"parents":[2147483647,0,0,1,1,2,2,3,3,4,4,5,5,6,6,7,7,8,8,9,9,10,10,11,11,12,12,13,13,14,14,15,15,16,16,17,17,18,18,19,19,20,20,21,21,22,22,23,23,24,24,25,25,26,26,27,27,28,28,29,29,30,30,31,31,32,32,33,33,34,34,35,35,36,36,37,37,38,38,39,39,40,40,41,41,42,42,43,43,44,44,45,45,46,46,47,47,48,48,49,49,50,50,51,51,52,52,53,53,54,54,55,55,56,56,57,57,58,58,59,59,60,60,61,61,62,62],"right_children":[2,4,6,8,10,12,14,16,18,20,22,24,26,28,30,32,34,36,38,40,42,44,46,48,50,52,54,56,58,60,62,64,66,68,70,72,74,76,78,80,82,84,86,88,90,92,94,96,98,100,102,104,106,108,110,112,114,116,118,120,122,124,126,-1,-1,-1,-1,-1,-1,-1,-1,-1,-1,-1,-1,-1,-1,-1,-1,-1,-1,-1,-1,-1,-1,-1,-1,-1,-1,-1,-1,-1,-1,-1,-1,-1,-1,-1,-1,-1,-1,-1,-1,-1,-1,-1,-1,-1,-1,-1,-1,-1,-1,-1,-1,-1,-1,-1,-1,-1,-1,-1,-1,-1,-1,-1,-1],"split_conditions":[3E0,1.09E2,5.9E1,4E0,6E0,6E0,6E0,1.6E1,9.1E1,1.02E2,8E0,4E0,6E0,4E0,1.2E1,8.67E-1,5.3E1,4.7E1,2.2E1,1.7E2,1.2E1,6.1E1,1.4E1,3.85E-1,4.38E-1,4E0,1.3E1,4.6E1,8.9E1,1.16E2,1.3E1,6.1E1,1.8E1,1.13E2,6.3E1,3E0,4.2E2,1E0,3.1E1,9E0,2.7E1,1.38E2,1.56E2,9.17E-1,1.26E2,1.7E2,1.12E2,1E0,3E1,1.6E1,1.243E3,7.27E-1,3.6E1,1.8E1,5E0,1.81E2,8.1E1,9E0,1.35E-1,1E0,3.5E-1,1.71E-1,3E0,3.0785394E-1,1.9470803E-1,5.8234263E-2,2.7512023E-1,2.8034115E-1,7.5778593E-3,1.8579818E-2,-1.4551812E-1,-3.498837E-2,1.7892252E-1,2.2763896E-1,-1.1363206E-2,2.18994E-1,2.975923E-1,6.6022955E-2,-1.5486678E-1,1.5208276E-1,3.289943E-1,-9.326047E-2,2.0342162E-1,-1.1283331E-1,2.1932735E-1,2.0897599E-1,-4.242309E-2,-1.8234183E-1,-6.375429E-2,1.0638635E-1,-1.4866792E-1,1.2309089E-1,-1.2734672E-1,7.295503E-2,-1.440477E-1,8.023756E-2,-1.2329921E-1,-1.6818646E-1,-9.751452E-4,-1.7963473E-1,-9.113769E-2,-1.8340608E-1,3.5201326E-2,2.5967047E-1,1.0193528E-1,-1.647237E-1,6.997076E-2,2.113856E-2,-1.6937385E-1,2.8962556E-1,-6.231817E-2,2.9640535E-1,-1.33182E-1,-1.4725657E-1,1.4918454E-1,-4.4556964E-2,2.2834864E-1,1.4923404E-1,3.5889986E-1,2.9194396E-2,-1.651521E-1,1.9471502E-1,-4.631354E-2,4.0583175E-1,1.3458367E-1,1.7431518E-1,-1.3788249E-1],"split_indices":[28,11,11,24,17,17,28,17,27,27,14,28,28,14,17,33,11,11,17,11,24,12,17,33,33,24,17,12,11,11,24,11,11,27,27,17,13,17,17,14,12,12,11,33,11,11,11,14,11,11,13,33,11,30,27,11,11,17,1,26,34,1,26,0,0,0,0,0,0,0,0,0,0,0,0,0,0,0,0,0,0,0,0,0,0,0,0,0,0,0,0,0,0,0,0,0,0,0,0,0,0,0,0,0,0,0,0,0,0,0,0,0,0,0,0,0,0,0,0,0,0,0,0,0,0,0,0],"split_type":[0,0,0,0,0,0,0,0,0,0,0,0,0,0,0,0,0,0,0,0,0,0,0,0,0,0,0,0,0,0,0,0,0,0,0,0,0,0,0,0,0,0,0,0,0,0,0,0,0,0,0,0,0,0,0,0,0,0,0,0,0,0,0,0,0,0,0,0,0,0,0,0,0,0,0,0,0,0,0,0,0,0,0,0,0,0,0,0,0,0,0,0,0,0,0,0,0,0,0,0,0,0,0,0,0,0,0,0,0,0,0,0,0,0,0,0,0,0,0,0,0,0,0,0,0,0,0],"sum_hessian":[1.4527263E4,1.2685574E4,1.841688E3,1.1728408E4,9.571667E2,1.3179427E3,5.237452E2,8.583249E3,3.1451587E3,5.9751025E2,3.5965643E2,1.1322369E3,1.8570589E2,4.217964E2,1.0194877E2,8.294356E3,2.888927E2,1.417089E3,1.7280697E3,2.9751123E2,2.9999902E2,1.8051874E2,1.7913771E2,4.9758563E2,6.3465125E2,1.5557182E2,3.0134066E1,2.1163551E2,2.1016089E2,8.892674E1,1.3022025E1,7.3088535E3,9.85503E2,1.4493808E2,1.4395464E2,7.6110815E2,6.5598083E2,1.6706605E3,5.740924E1,2.436361E2,5.387514E1,2.1213945E2,8.785955E1,1.7455484E2,5.963887E0,8.6194084E1,9.294363E1,2.80501E2,2.1708464E2,2.3275243E2,4.018988E2,1.114517E2,4.412013E1,2.43132E1,5.820865E0,1.8863445E2,2.3001059E1,1.072087E2,1.0295219E2,6.0035404E1,2.8891344E1,7.7054963E0,5.3165283E0,6.0722363E3,1.2366171E3,5.162804E2,4.692226E2,7.739714E1,6.754094E1,5.3853294E1,9.010133E1,6.108567E2,1.502515E2,5.639666E2,9.20142E1,1.2086531E3,4.620074E2,3.591358E1,2.1495663E1,1.6117033E2,8.246575E1,4.0220005E1,1.3655134E1,1.9942336E2,1.27161045E1,5.6609257E1,3.1250296E1,1.6621448E2,8.340364E0,2.5590894E0,3.4047976E0,7.079385E1,1.5400231E1,6.302778E0,8.664085E1,1.8436919E2,9.613183E1,1.5960077E2,5.748386E1,1.0028742E2,1.3246501E2,4.0080112E2,1.0976942E0,7.898771E1,3.246399E1,1.2477945E1,3.1642185E1,1.322115E0,2.2991085E1,1.2210176E0,4.599848E0,1.8234625E2,6.2881966E0,5.3481073E0,1.7652952E1,7.6394394E1,3.0814308E1,8.243309E1,2.05191E1,1.0600563E1,4.943484E1,1.9283218E1,9.608125E0,5.5627403E0,2.142756E0,3.3668368E0,1.9496915E0],"tree_param":{"num_deleted":"0","num_feature":"54","num_nodes":"127","size_leaf_vector":"1"}},{"base_weights":[-2.1059997E-1,-4.098627E-1,-4.2741638E-2,-5.1248384E-1,-1.8433063E-1,1.2452881E-1,-2.1739775E-1,-5.5490255E-1,-2.0550722E-2,-6.8856746E-2,-4.6114668E-1,1.9429548E-1,-4.725512E-1,-1.3100211E-1,-3.8068536E-1,-5.890762E-1,-5.1343846E-1,4.2638913E-1,-3.5127777E-1,5.5460263E-2,-3.3504447E-1,-4.7658157E-1,-6.609092E-2,2.5093928E-1,-2.2445674E-1,-5.1769197E-1,-7.446856E-2,-2.2444218E-1,3.0397264E-2,-4.2435524E-1,-1.5559433E-1,-5.916882E-1,1.2839231E-1,-4.9561968E-1,-5.9093624E-1,5.8386153E-1,1.707927E-1,-1.2473547E-1,-5.211189E-1,2.105127E-2,4.1522995E-1,-4.4500703E-1,-1.5306678E-1,-4.8350072E-1,-1.681024E-1,1.9479342E-1,-1.6553149E-1,3.08934E-1,1.7269216E-1,-3.250389E-1,2.5375003E-1,-2.6056635E-1,-5.8524764E-1,1.5191509E-1,-4.9607974E-1,-3.9523175E-1,-4.500848E-2,7.755676E-2,-4.608128E-1,-4.880888E-1,-3.4511796E-1,-1.01563916E-1,-4.8696005E-1,-1.8035781E-1,-1.2213578E-1,2.350521E-1,-5.3217072E-2,-1.6086245E-1,-1.4181623E-1,-1.7831224E-1,3.0424064E-2,1.8338574E-1,-1.2896863E-1,-3.0755809E-2,1.00152776E-1,-3.9064353E-3,-1.7769513E-1,-7.445208E-2,-1.7107743E-1,5.4810308E-2,-1.3779177E-2,1.461398E-1,-5.958919E-2,-1.4584212E-1,-4.469663E-2,3.431125E-2,-8.736906E-2,-1.0335929E-1,-1.4985372E-1,-8.934718E-2,1.647287E-1,-1.4308889E-2,2.5491208E-1,9.965164E-2,1.2061351E-2,3.591234E-2,1.1936826E-1,-1.345691E-1,4.0379003E-2,1.0565441E-1,-1.2832388E-1,-9.025276E-2,3.3396843E-1,-1.7802657E-1,1.6241205E-1,-3.8596804E-3,3.0002213E-1,-1.7057908E-1,5.0956044E-2,-1.4359285E-1,-6.380996E-2,-3.2154426E-2,8.991559E-2,4.420973E-2,-5.4676175E-2,-1.462774E-1,1.0575649E-1,-1.5964964E-1,-7.413091E-2,-1.0927882E-1,4.2435266E-2,-1.257277E-2,-1.4997105E-1,-1.6896804E-1,9.748822E-2],"categories":[],"categories_nodes":[],"categories_segments":[],"categories_sizes":[],"default_left":[0,0,0,0,0,0,0,0,0,0,0,0,0,0,0,0,0,0,0,0,0,0,0,0,0,0,0,0,0,0,0,0,0,0,0,0,0,0,0,0,0,0,0,0,0,0,0,0,0,0,0,0,0,0,0,0,0,0,0,0,0,0,0,0,0,0,0,0,0,0,0,0,0,0,0,0,0,0,0,0,0,0,0,0,0,0,0,0,0,0,0,0,0,0,0,0,0,0,0,0,0,0,0,0,0,0,0,0,0,0,0,0,0,0,0,0,0,0,0,0,0,0,0,0,0],"id":6,"left_children":[1,3,5,7,9,11,13,15,17,19,21,23,25,27,29,31,33,35,37,39,41,43,45,47,49,51,53,55,57,59,61,63,65,67,69,71,73,75,77,79,81,83,85,87,89,91,-1,93,95,97,99,101,103,105,107,109,111,113,115,117,119,121,123,-1,-1,-1,-1,-1,-1,-1,-1,-1,-1,-1,-1,-1,-1,-1,-1,-1,-1,-1,-1,-1,-1,-1,-1,-1,-1,-1,-1,-1,-1,-1,-1,-1,-1,-1,-1,-1,-1,-1,-1,-1,-1,-1,-1,-1,-1,-1,-1,-1,-1,-1,-1,-1,-1,-1,-1,-1,-1,-1,-1,-1,-1],"loss_changes":[3.9082324E2,1.2355719E2,1.8534912E2,7.659833E1,5.3424183E1,1.3509398E2,4.373323E1,4.4866943E0,4.338264E1,3.910771E1,2.9690857E0,6.89029E1,6.059593E0,3.0639606E1,1.048494E1,3.5354004E0,1.8265991E0,4.924917E0,6.423691E0,9.969597E0,7.4596977E0,9.291992E-1,2.5990412E0,1.1550751E1,1.6742245E1,5.1389313E0,3.4856668E0,3.9409073E1,1.7308731E1,4.368469E0,3.1013904E0,2.9820557E0,1.644971E0,9.121094E-1,7.308502E-1,2.3988628E0,2.218049E0,3.8354425E0,1.1469707E0,7.9855237E0,3.2000742E0,2.7764244E0,5.3252997E0,8.570328E-1,1.2724162E0,2.1894765E0,0E0,9.149994E0,1.2967735E1,1.6333088E1,4.225976E0,3.9416814E0,2.5355453E0,3.3689382E0,7.107098E-1,9.931953E0,1.3503145E1,1.2381564E1,1.597599E0,5.131523E0,3.8139267E0,3.604744E0,1.6944895E0,0E0,0E0,0E0,0E0,0E0,0E0,0E0,0E0,0E0,0E0,0E0,0E0,0E0,0E0,0E0,0E0,0E0,0E0,0E0,0E0,0E0,0E0,0E0,0E0,0E0,0E0,0E0,0E0,0E0,0E0,0E0,0E0,0E0,0E0,0E0,0E0,0E0,0E0,0E0,0E0,0E0,0E0,0E0,0E0,0E0,0E0,0E0,0E0,0E0,0E0,0E0,0E0,0E0,0E0,0E0,0E0,0E0,0E0,0E0,0E0,0E0,0E0],"parents":[2147483647,0,0,1,1,2,2,3,3,4,4,5,5,6,6,7,7,8,8,9,9,10,10,11,11,12,12,13,13,14,14,15,15,16,16,17,17,18,18,19,19,20,20,21,21,22,22,23,23,24,24,25,25,26,26,27,27,28,28,29,29,30,30,31,31,32,32,33,33,34,34,35,35,36,36,37,37,38,38,39,39,40,40,41,41,42,42,43,43,44,44,45,45,47,47,48,48,49,49,50,50,51,51,52,52,53,53,54,54,55,55,56,56,57,57,58,58,59,59,60,60,61,61,62,62],"right_children":[2,4,6,8,10,12,14,16,18,20,22,24,26,28,30,32,34,36,38,40,42,44,46,48,50,52,54,56,58,60,62,64,66,68,70,72,74,76,78,80,82,84,86,88,90,92,-1,94,96,98,100,102,104,106,108,110,112,114,116,118,120,122,124,-1,-1,-1,-1,-1,-1,-1,-1,-1,-1,-1,-1,-1,-1,-1,-1,-1,-1,-1,-1,-1,-1,-1,-1,-1,-1,-1,-1,-1,-1,-1,-1,-1,-1,-1,-1,-1,-1,-1,-1,-1,-1,-1,-1,-1,-1,-1,-1,-1,-1,-1,-1,-1,-1,-1,-1,-1,-1,-1,-1,-1,-1],"split_conditions":[1E0,1E0,3.2E1,8.42E-1,3E0,5E0,7.8E1,3.5E1,1.4E1,5.8E1,7.65E-1,6E0,4E0,1.6E1,4E0,1.11E3,1.05E2,8E0,2.7E1,2.61E-1,2.26E2,2E0,3E0,1.5E1,2E0,1.33E-1,7E0,2E0,5E0,4E0,9E0,1.1E1,1.186E3,5.1E1,5.71E-1,1.39E2,6.4E1,2E0,1E0,2.1E1,3.08E2,2.42E-1,5.35E2,5E0,1E0,3E0,-1.6553149E-1,4E0,1E0,8.18E-1,1.7E1,5E1,3.6E1,2.6E1,2E0,2E1,2.7E1,8E0,9E0,7.9E1,4.7E1,1.8E1,1.74E2,-1.8035781E-1,-1.2213578E-1,2.350521E-1,-5.3217072E-2,-1.6086245E-1,-1.4181623E-1,-1.7831224E-1,3.0424064E-2,1.8338574E-1,-1.2896863E-1,-3.0755809E-2,1.00152776E-1,-3.9064353E-3,-1.7769513E-1,-7.445208E-2,-1.7107743E-1,5.4810308E-2,-1.3779177E-2,1.461398E-1,-5.958919E-2,-1.4584212E-1,-4.469663E-2,3.431125E-2,-8.736906E-2,-1.0335929E-1,-1.4985372E-1,-8.934718E-2,1.647287E-1,-1.4308889E-2,2.5491208E-1,9.965164E-2,1.2061351E-2,3.591234E-2,1.1936826E-1,-1.345691E-1,4.0379003E-2,1.0565441E-1,-1.2832388E-1,-9.025276E-2,3.3396843E-1,-1.7802657E-1,1.6241205E-1,-3.8596804E-3,3.0002213E-1,-1.7057908E-1,5.0956044E-2,-1.4359285E-1,-6.380996E-2,-3.2154426E-2,8.991559E-2,4.420973E-2,-5.4676175E-2,-1.462774E-1,1.0575649E-1,-1.5964964E-1,-7.413091E-2,-1.0927882E-1,4.2435266E-2,-1.257277E-2,-1.4997105E-1,-1.6896804E-1,9.748822E-2],"split_indices":[28,14,11,33,17,28,11,11,11,11,33,17,17,24,28,27,11,11,11,33,13,25,10,11,14,33,28,28,28,14,28,17,27,11,0,13,13,17,9,11,13,0,27,17,50,16,0,28,15,33,17,27,28,11,15,12,12,17,2,12,12,17,11,0,0,0,0,0,0,0,0,0,0,0,0,0,0,0,0,0,0,0,0,0,0,0,0,0,0,0,0,0,0,0,0,0,0,0,0,0,0,0,0,0,0,0,0,0,0,0,0,0,0,0,0,0,0,0,0,0,0,0,0,0,0],"split_type":[0,0,0,0,0,0,0,0,0,0,0,0,0,0,0,0,0,0,0,0,0,0,0,0,0,0,0,0,0,0,0,0,0,0,0,0,0,0,0,0,0,0,0,0,0,0,0,0,0,0,0,0,0,0,0,0,0,0,0,0,0,0,0,0,0,0,0,0,0,0,0,0,0,0,0,0,0,0,0,0,0,0,0,0,0,0,0,0,0,0,0,0,0,0,0,0,0,0,0,0,0,0,0,0,0,0,0,0,0,0,0,0,0,0,0,0,0,0,0,0,0,0,0,0,0],"sum_hessian":[1.1684058E4,5.3416284E3,6.342429E3,3.6703027E3,1.6713259E3,3.2398599E3,3.1025693E3,3.3788232E3,2.914793E2,1.180238E3,4.910878E2,2.9015042E3,3.383558E2,2.030194E3,1.0723752E3,1.8450088E3,1.5338146E3,1.2383764E2,1.676417E2,8.0504944E2,3.7518866E2,4.7242377E2,1.866403E1,2.5561406E3,3.4536346E2,3.0362555E2,3.4730244E1,1.2855507E3,7.446433E2,8.973879E2,1.749874E2,1.838491E3,6.5177965E0,1.2530913E3,2.8072318E2,7.583287E1,4.8004765E1,7.257375E1,9.506793E1,7.357405E2,6.9308975E1,2.3296867E2,1.4221997E2,4.615049E2,1.0918851E1,1.2531589E1,6.132441E0,1.4663625E3,1.0897781E3,2.856107E2,5.9752773E1,6.418523E1,2.3944034E2,2.3013079E1,1.1717167E1,6.58024E2,6.275267E2,6.801832E2,6.446009E1,4.944905E2,4.0289737E2,1.5157846E2,2.3408932E1,1.7463065E3,9.218449E1,1.5769678E0,4.9408283E0,4.4388577E2,8.092056E2,2.7947693E2,1.2462529E0,7.4222015E1,1.6108565E0,1.8076052E1,2.9928713E1,5.940793E1,1.3165822E1,1.5427233E1,7.96407E1,2.1504263E2,5.206978E2,6.222668E1,7.08229E0,2.03982E2,2.8986675E1,4.850429E1,9.371568E1,5.0005955E1,4.1149896E2,9.741601E0,1.17725E0,9.822033E0,2.709556E0,1.3494353E3,1.16927155E2,8.8345496E2,2.0632315E2,2.2513176E2,6.0478924E1,5.2633865E1,7.1189055E0,6.311584E1,1.0693828E0,2.3818544E2,1.2548958E0,2.009403E1,2.9190476E0,1.0698332E1,1.0188351E0,4.5052612E2,2.0749786E2,5.3222656E2,9.530015E1,5.364707E2,1.4371251E2,6.279317E1,1.66692E0,4.1701038E2,7.748012E1,3.8788678E2,1.5010602E1,1.3279631E2,1.878215E1,2.167886E1,1.730072E0],"tree_param":{"num_deleted":"0","num_feature":"54","num_nodes":"125","size_leaf_vector":"1"}},{"base_weights":[-2.8598213E-1,-4.7099006E-1,5.3774095E-1,-5.780043E-1,-2.6687732E-1,2.657457E-1,9.5126134E-1,-6.1366594E-1,-3.635613E-1,-4.8005962E-1,-6.5560356E-2,4.6768853E-1,-1.8214597E-1,1.0303158E0,1.7782436E-1,-1.861562E-1,-5.562194E-1,-4.9618843E-1,-7.288848E-2,-5.197485E-1,-2.5320143E-1,1.1535295E-1,-4.4375375E-1,2.8934398E-1,9.216125E-1,-5.5069435E-1,1.415185E-1,1.0879657E0,4.083191E-1,-1.430903E-1,9.26938E-1,-4.1467193E-1,-6.055842E-1,-3.8074493E-1,-1.8811855E-1,2.1439809E-1,-5.295499E-1,-5.26917E-1,3.3572337E-1,-2.970436E-1,1.0391527E0,-1.6774626E-3,6.87477E-1,-5.007206E-1,7.2452587E-1,-5.26162E-2,5.7701373E-1,9.777054E-1,-6.020549E-2,1.7333175E-1,-5.6523114E-1,3.948504E-1,-4.0095526E-1,9.075994E-1,1.1428384E0,2.0709133E-1,3.7337327E-1,-3.427866E-1,4.127687E-1,1.1110018E0,-1.3912192E-1,-1.4393257E-1,3.237776E-2,-4.6002273E-2,-1.8303677E-1,-6.8467893E-3,-1.5316875E-1,9.060251E-2,-1.11462444E-1,-8.59158E-2,-1.7661165E-1,-1.6374415E-1,-7.287486E-2,-1.6374527E-1,3.0682287E-1,-4.472627E-2,-1.7166436E-1,3.7487456E-1,7.278551E-2,-4.6366177E-2,1.4111252E-1,1.3308936E-1,3.5170788E-1,-1.6152927E-1,-2.5638347E-2,3.1478894E-1,-3.7569099E-3,1.2124537E-2,-1.7222348E-1,2.4153705E-1,8.876554E-2,2.654078E-1,3.9645398E-1,1.517629E-1,-1.4165092E-1,-1.1789246E-1,1.9532968E-1,-1.7255963E-1,3.381485E-2,1.8855879E-1,-6.57898E-2,-1.4026856E-1,3.164131E-1,2.2872785E-1,3.5453248E-1,3.4477773E-1,9.177101E-2,1.23731166E-1,-1.5348196E-1,-1.2551832E-1,1.7100865E-1,3.413207E-1,-1.0322712E-1,3.6321506E-1,-1.09069906E-1],"categories":[],"categories_nodes":[],"categories_segments":[],"categories_sizes":[],"default_left":[0,0,0,0,0,0,0,0,0,0,0,0,0,0,0,0,0,0,0,0,0,0,0,0,0,0,0,0,0,0,0,0,0,0,0,0,0,0,0,0,0,0,0,0,0,0,0,0,0,0,0,0,0,0,0,0,0,0,0,0,0,0,0,0,0,0,0,0,0,0,0,0,0,0,0,0,0,0,0,0,0,0,0,0,0,0,0,0,0,0,0,0,0,0,0,0,0,0,0,0,0,0,0,0,0,0,0,0,0,0,0,0,0,0,0],"id":7,"left_children":[1,3,5,7,9,11,13,15,17,19,21,23,25,27,29,-1,31,33,35,37,39,41,43,45,47,49,51,53,55,57,59,61,63,65,-1,67,69,71,73,75,77,79,81,83,85,87,89,91,93,95,97,99,101,103,105,107,-1,109,111,113,-1,-1,-1,-1,-1,-1,-1,-1,-1,-1,-1,-1,-1,-1,-1,-1,-1,-1,-1,-1,-1,-1,-1,-1,-1,-1,-1,-1,-1,-1,-1,-1,-1,-1,-1,-1,-1,-1,-1,-1,-1,-1,-1,-1,-1,-1,-1,-1,-1,-1,-1,-1,-1,-1,-1],"loss_changes":[1.7509E3,2.0475879E2,2.3677332E2,4.6835693E1,1.3853008E2,1.1518984E2,5.091815E1,1.7319336E0,3.3884003E1,1.3985565E1,1.1374215E2,7.0763596E1,4.733822E1,2.6737854E1,1.9054955E1,0E0,3.745407E0,8.8871E0,3.6434513E1,8.354553E0,1.3647105E1,7.5311775E1,3.6160316E1,6.213952E1,1.3663712E1,2.0499039E0,2.9256449E1,5.822876E0,1.0831971E1,6.3544497E0,6.592079E0,5.191412E0,7.723694E-1,1.5018528E1,0E0,8.872588E0,1.3734074E0,6.9665527E0,7.639417E0,9.2163105E0,1.0287733E0,6.753102E1,2.2064232E1,7.9945526E0,6.097226E0,1.4061812E1,2.1757118E1,6.3055267E0,3.5719833E0,1.4505538E0,1.2949791E0,2.092404E1,7.076438E0,5.7279053E0,2.4837646E0,8.227437E0,0E0,3.1181197E0,8.757519E0,3.5661488E0,0E0,0E0,0E0,0E0,0E0,0E0,0E0,0E0,0E0,0E0,0E0,0E0,0E0,0E0,0E0,0E0,0E0,0E0,0E0,0E0,0E0,0E0,0E0,0E0,0E0,0E0,0E0,0E0,0E0,0E0,0E0,0E0,0E0,0E0,0E0,0E0,0E0,0E0,0E0,0E0,0E0,0E0,0E0,0E0,0E0,0E0,0E0,0E0,0E0,0E0,0E0,0E0,0E0,0E0,0E0],"parents":[2147483647,0,0,1,1,2,2,3,3,4,4,5,5,6,6,7,7,8,8,9,9,10,10,11,11,12,12,13,13,14,14,16,16,17,17,18,18,19,19,20,20,21,21,22,22,23,23,24,24,25,25,26,26,27,27,28,28,29,29,30,30,31,31,32,32,33,33,35,35,36,36,37,37,38,38,39,39,40,40,41,41,42,42,43,43,44,44,45,45,46,46,47,47,48,48,49,49,50,50,51,51,52,52,53,53,54,54,55,55,57,57,58,58,59,59],"right_children":[2,4,6,8,10,12,14,16,18,20,22,24,26,28,30,-1,32,34,36,38,40,42,44,46,48,50,52,54,56,58,60,62,64,66,-1,68,70,72,74,76,78,80,82,84,86,88,90,92,94,96,98,100,102,104,106,108,-1,110,112,114,-1,-1,-1,-1,-1,-1,-1,-1,-1,-1,-1,-1,-1,-1,-1,-1,-1,-1,-1,-1,-1,-1,-1,-1,-1,-1,-1,-1,-1,-1,-1,-1,-1,-1,-1,-1,-1,-1,-1,-1,-1,-1,-1,-1,-1,-1,-1,-1,-1,-1,-1,-1,-1,-1,-1],"split_conditions":[3E0,1E0,5E0,6.25E-1,1E0,4.8E1,9E1,2E0,2E0,4.05E2,6.1E1,3E0,4E0,8E0,9E0,-1.861562E-1,1.1E1,8.9E1,2.3E1,5.16E2,5.19E-1,2.34E2,5.3E1,4.38E-1,9E0,1.7E1,8.9E1,2.61E-1,9E0,1E0,1.64E2,2.9E-1,9E3,1E1,-1.8811855E-1,2E0,2.9E1,5.62E-1,1E0,7.2E1,6.2E1,4.62E-1,2.8E1,4.74E2,8.8E1,4E0,1.4E1,1.4E1,1E0,2E0,4E0,6E0,1.9E1,7E0,2.7E1,1.7E1,3.7337327E-1,5.2E1,2E0,1.1E1,-1.3912192E-1,-1.4393257E-1,3.237776E-2,-4.6002273E-2,-1.8303677E-1,-6.8467893E-3,-1.5316875E-1,9.060251E-2,-1.11462444E-1,-8.59158E-2,-1.7661165E-1,-1.6374415E-1,-7.287486E-2,-1.6374527E-1,3.0682287E-1,-4.472627E-2,-1.7166436E-1,3.7487456E-1,7.278551E-2,-4.6366177E-2,1.4111252E-1,1.3308936E-1,3.5170788E-1,-1.6152927E-1,-2.5638347E-2,3.1478894E-1,-3.7569099E-3,1.2124537E-2,-1.7222348E-1,2.4153705E-1,8.876554E-2,2.654078E-1,3.9645398E-1,1.517629E-1,-1.4165092E-1,-1.1789246E-1,1.9532968E-1,-1.7255963E-1,3.381485E-2,1.8855879E-1,-6.57898E-2,-1.4026856E-1,3.164131E-1,2.2872785E-1,3.5453248E-1,3.4477773E-1,9.177101E-2,1.23731166E-1,-1.5348196E-1,-1.2551832E-1,1.7100865E-1,3.413207E-1,-1.0322712E-1,3.6321506E-1,-1.09069906E-1],"split_indices":[28,14,28,33,28,11,11,28,28,13,11,14,24,17,28,0,11,27,11,14,33,13,12,33,17,30,11,33,28,16,11,33,29,11,0,17,11,33,15,11,11,33,12,13,11,17,11,12,4,26,16,17,16,28,9,17,0,12,10,8,0,0,0,0,0,0,0,0,0,0,0,0,0,0,0,0,0,0,0,0,0,0,0,0,0,0,0,0,0,0,0,0,0,0,0,0,0,0,0,0,0,0,0,0,0,0,0,0,0,0,0,0,0,0,0],"split_type":[0,0,0,0,0,0,0,0,0,0,0,0,0,0,0,0,0,0,0,0,0,0,0,0,0,0,0,0,0,0,0,0,0,0,0,0,0,0,0,0,0,0,0,0,0,0,0,0,0,0,0,0,0,0,0,0,0,0,0,0,0,0,0,0,0,0,0,0,0,0,0,0,0,0,0,0,0,0,0,0,0,0,0,0,0,0,0,0,0,0,0,0,0,0,0,0,0,0,0,0,0,0,0,0,0,0,0,0,0,0,0,0,0,0,0],"sum_hessian":[1.1486536E4,9.380179E3,2.106357E3,6.1526006E3,3.227578E3,1.2715988E3,8.347583E2,5.2737256E3,8.7887524E2,1.5669205E3,1.6606573E3,8.7640576E2,3.95193E2,7.57047E2,7.77113E1,4.7027705E3,5.709551E2,6.03023E2,2.7585217E2,1.3325071E3,2.3441348E2,1.1237792E3,5.368782E2,6.303728E2,2.4603296E2,1.8445612E2,2.1073686E2,6.9214606E2,6.490097E1,5.497109E1,2.2740213E1,1.5006429E2,4.2089078E2,3.2247598E2,2.8054706E2,1.6965341E2,1.0619878E2,1.3218148E3,1.0692152E1,2.27467E2,6.9464965E0,9.337697E2,1.900095E2,5.1246124E2,2.4416897E1,2.8838245E2,3.4199033E2,2.3274031E2,1.3292652E1,3.415569E0,1.8104056E2,1.4383768E2,6.689918E1,1.6554358E2,5.266025E2,5.3318623E1,1.1582349E1,4.0724014E1,1.4247072E1,2.0259823E1,2.4803905E0,1.3351361E2,1.6550678E1,4.527421E0,4.1636334E2,8.614363E1,2.3633237E2,1.4800772E2,2.164569E1,2.192315E1,8.427563E1,1.2384867E3,8.332816E1,4.7731147E0,5.919038E0,1.4893062E2,7.853638E1,5.0449457E0,1.9015508E0,7.0584955E2,2.2792017E2,1.2770302E2,6.230649E1,4.6952637E2,4.2934887E1,1.6654621E1,7.762276E0,2.4550558E2,4.287687E1,1.877692E2,1.5422112E2,1.8599501E2,4.6745304E1,5.502998E0,7.7896543E0,1.6441741E0,1.771395E0,1.7856671E2,2.4738467E0,1.0417612E2,3.9661564E1,6.4621124E1,2.278057E0,1.10706406E2,5.4837173E1,5.222229E2,4.3795457E0,4.180131E1,1.151731E1,3.810911E1,2.6149044E0,7.0198183E0,7.2272534E0,1.9144167E1,1.1156555E0],"tree_param":{"num_deleted":"0","num_feature":"54","num_nodes":"115","size_leaf_vector":"1"}},{"base_weights":[-2.772881E-1,-4.8554417E-1,2.8520632E-1,-5.3261036E-1,2.1727277E-1,8.8898554E-2,6.100726E-1,-5.4754305E-1,2.7315686E-3,-6.347546E-2,4.9324992E-1,-2.3373608E-1,3.4582976E-1,7.200372E-1,1.8578437E-1,-5.740083E-1,-3.3893484E-1,-1.3412817E-1,6.80296E-1,-2.6009014E-1,4.6055794E-1,6.633047E-1,2.1187072E-1,-4.5606637E-1,2.3605587E-1,1.6816948E-2,5.7070947E-1,9.02356E-1,5.1212054E-1,-9.5608234E-2,6.485243E-1,-5.889669E-1,-4.8047844E-1,-5.51228E-1,-1.2509798E-1,2.6649926E-3,-5.6077147E-1,1.0078557E0,-3.2853895E-1,-5.353624E-2,-5.117369E-1,6.629845E-1,-3.596995E-2,1.9710481E-1,7.9429036E-1,-1.3931638E-1,4.859812E-1,-5.196729E-1,-2.1199813E-1,3.9519033E-1,-2.885699E-1,2.467968E-1,-4.898573E-1,6.870013E-1,1.8747215E-1,9.246457E-1,2.8799915E-1,2.51661E-1,8.1679803E-1,-2.7785492E-1,5.5520505E-1,8.3122224E-1,2.624673E-1,-1.7745343E-1,-1.5277919E-1,-1.6904502E-1,-8.143094E-2,-1.7283943E-1,-8.4961504E-2,-1.03626974E-1,1.0528682E-1,1.6338353E-1,-5.0581824E-2,-1.7562227E-1,2.7139826E-2,-7.658723E-3,3.2385036E-1,4.5322757E-2,-1.5913141E-1,4.045352E-2,-1.5391743E-1,-1.5981662E-1,5.555435E-2,2.9257187E-1,7.3708504E-2,-1.4488284E-1,9.7727396E-2,1.3282487E-2,2.2198288E-1,2.4477631E-1,5.097854E-2,-7.701136E-2,2.8021035E-1,8.868003E-2,2.6817003E-1,-1.3678645E-1,-1.8012685E-1,-6.7927884E-3,-1.7921214E-1,1.7839319E-1,-4.394725E-2,-1.2046867E-1,1.182859E-1,2.6652435E-2,1.7103605E-1,1.9883923E-1,-1.5152326E-1,2.1508692E-1,3.3280242E-2,-5.9467662E-2,1.4204329E-1,2.8433657E-1,1.1935693E-1,1.0258672E-2,2.6820445E-1,-2.6512828E-2,1.6018909E-1,1.1336461E-1,2.6583496E-1,2.0749687E-4,-1.4656596E-1,2.4067338E-1,-9.275178E-3,2.6661158E-1,2.5498172E-2,-1.9758899E-2,2.0852312E-1],"categories":[],"categories_nodes":[],"categories_segments":[],"categories_sizes":[],"default_left":[0,0,0,0,0,0,0,0,0,0,0,0,0,0,0,0,0,0,0,0,0,0,0,0,0,0,0,0,0,0,0,0,0,0,0,0,0,0,0,0,0,0,0,0,0,0,0,0,0,0,0,0,0,0,0,0,0,0,0,0,0,0,0,0,0,0,0,0,0,0,0,0,0,0,0,0,0,0,0,0,0,0,0,0,0,0,0,0,0,0,0,0,0,0,0,0,0,0,0,0,0,0,0,0,0,0,0,0,0,0,0,0,0,0,0,0,0,0,0,0,0,0,0,0,0,0,0],"id":8,"left_children":[1,3,5,7,9,11,13,15,17,19,21,23,25,27,29,31,33,35,37,39,41,43,45,47,49,51,53,55,57,59,61,63,65,67,69,71,73,75,77,79,81,83,85,87,89,91,93,95,97,99,101,103,105,107,109,111,113,115,117,119,121,123,125,-1,-1,-1,-1,-1,-1,-1,-1,-1,-1,-1,-1,-1,-1,-1,-1,-1,-1,-1,-1,-1,-1,-1,-1,-1,-1,-1,-1,-1,-1,-1,-1,-1,-1,-1,-1,-1,-1,-1,-1,-1,-1,-1,-1,-1,-1,-1,-1,-1,-1,-1,-1,-1,-1,-1,-1,-1,-1,-1,-1,-1,-1,-1,-1],"loss_changes":[1.190731E3,2.4548743E2,1.7512099E2,5.5580444E1,3.6159035E1,1.421099E2,4.8130737E1,3.7147583E1,1.7678984E1,2.4026451E1,1.1116348E1,7.95055E1,7.059033E1,3.06669E1,2.7962355E1,8.112793E0,3.4610558E1,9.2592535E0,1.0917744E1,8.775923E0,6.4229183E0,8.769066E0,8.740068E0,7.9052505E0,2.055515E1,4.5383347E1,2.5130539E1,5.7071533E0,3.0423897E1,1.606148E1,5.5057755E0,7.470703E-1,1.4298157E1,2.3936234E0,4.017492E1,1.1333239E1,6.709204E-1,1.8362999E0,9.1354275E-1,8.217817E0,1.2135258E0,5.660246E0,3.29186E0,2.7373004E0,1.3979187E0,5.3136716E0,3.6824322E0,1.8300476E0,7.8988047E0,2.0429256E1,4.599649E0,1.3627762E1,2.4681263E0,7.417343E0,1.4800655E1,4.7492676E0,2.5418503E0,2.0160908E1,5.0638123E0,6.188629E0,4.3214054E0,2.2675858E0,3.9561334E0,0E0,0E0,0E0,0E0,0E0,0E0,0E0,0E0,0E0,0E0,0E0,0E0,0E0,0E0,0E0,0E0,0E0,0E0,0E0,0E0,0E0,0E0,0E0,0E0,0E0,0E0,0E0,0E0,0E0,0E0,0E0,0E0,0E0,0E0,0E0,0E0,0E0,0E0,0E0,0E0,0E0,0E0,0E0,0E0,0E0,0E0,0E0,0E0,0E0,0E0,0E0,0E0,0E0,0E0,0E0,0E0,0E0,0E0,0E0,0E0,0E0,0E0,0E0,0E0],"parents":[2147483647,0,0,1,1,2,2,3,3,4,4,5,5,6,6,7,7,8,8,9,9,10,10,11,11,12,12,13,13,14,14,15,15,16,16,17,17,18,18,19,19,20,20,21,21,22,22,23,23,24,24,25,25,26,26,27,27,28,28,29,29,30,30,31,31,32,32,33,33,34,34,35,35,36,36,37,37,38,38,39,39,40,40,41,41,42,42,43,43,44,44,45,45,46,46,47,47,48,48,49,49,50,50,51,51,52,52,53,53,54,54,55,55,56,56,57,57,58,58,59,59,60,60,61,61,62,62],"right_children":[2,4,6,8,10,12,14,16,18,20,22,24,26,28,30,32,34,36,38,40,42,44,46,48,50,52,54,56,58,60,62,64,66,68,70,72,74,76,78,80,82,84,86,88,90,92,94,96,98,100,102,104,106,108,110,112,114,116,118,120,122,124,126,-1,-1,-1,-1,-1,-1,-1,-1,-1,-1,-1,-1,-1,-1,-1,-1,-1,-1,-1,-1,-1,-1,-1,-1,-1,-1,-1,-1,-1,-1,-1,-1,-1,-1,-1,-1,-1,-1,-1,-1,-1,-1,-1,-1,-1,-1,-1,-1,-1,-1,-1,-1,-1,-1,-1,-1,-1,-1,-1,-1,-1,-1,-1,-1],"split_conditions":[7.4E1,1.4E1,7E0,1.43E3,1.08E2,9.1E1,2E0,8E0,5E0,2.8E1,1E0,1.33E2,9.5E1,1E0,1.26E2,5.3E1,9.5E1,1.7E1,1E0,2E0,4E-2,3E1,2.2E1,1.09E2,3E0,1E0,1.2E1,7.1E1,1.8E1,2.7E1,2.9E-1,9.96E2,2.25E2,6.6E1,4.7E1,3.1E1,2.205E3,4.6E1,1.65E4,1.1E1,7E1,1.6E1,4.1E1,3E0,4.12E-1,5E0,6E0,1E0,1.18E-1,2E1,1.9E2,1.357E3,1.3E1,4.12E-1,1.26E2,6.88E-1,1.3E2,1.07E2,1.8E4,1E0,4E0,2.95E-1,1.64E2,-1.7745343E-1,-1.5277919E-1,-1.6904502E-1,-8.143094E-2,-1.7283943E-1,-8.4961504E-2,-1.03626974E-1,1.0528682E-1,1.6338353E-1,-5.0581824E-2,-1.7562227E-1,2.7139826E-2,-7.658723E-3,3.2385036E-1,4.5322757E-2,-1.5913141E-1,4.045352E-2,-1.5391743E-1,-1.5981662E-1,5.555435E-2,2.9257187E-1,7.3708504E-2,-1.4488284E-1,9.7727396E-2,1.3282487E-2,2.2198288E-1,2.4477631E-1,5.097854E-2,-7.701136E-2,2.8021035E-1,8.868003E-2,2.6817003E-1,-1.3678645E-1,-1.8012685E-1,-6.7927884E-3,-1.7921214E-1,1.7839319E-1,-4.394725E-2,-1.2046867E-1,1.182859E-1,2.6652435E-2,1.7103605E-1,1.9883923E-1,-1.5152326E-1,2.1508692E-1,3.3280242E-2,-5.9467662E-2,1.4204329E-1,2.8433657E-1,1.1935693E-1,1.0258672E-2,2.6820445E-1,-2.6512828E-2,1.6018909E-1,1.1336461E-1,2.6583496E-1,2.0749687E-4,-1.4656596E-1,2.4067338E-1,-9.275178E-3,2.6661158E-1,2.5498172E-2,-1.9758899E-2,2.0852312E-1],"split_indices":[11,17,17,27,27,27,28,17,17,17,14,11,11,14,11,11,27,24,14,28,33,11,17,11,28,14,24,12,17,17,33,27,27,11,11,12,27,13,29,14,27,24,11,9,33,15,10,14,33,12,11,27,13,33,11,33,11,11,29,14,28,3,11,0,0,0,0,0,0,0,0,0,0,0,0,0,0,0,0,0,0,0,0,0,0,0,0,0,0,0,0,0,0,0,0,0,0,0,0,0,0,0,0,0,0,0,0,0,0,0,0,0,0,0,0,0,0,0,0,0,0,0,0,0,0,0,0],"split_type":[0,0,0,0,0,0,0,0,0,0,0,0,0,0,0,0,0,0,0,0,0,0,0,0,0,0,0,0,0,0,0,0,0,0,0,0,0,0,0,0,0,0,0,0,0,0,0,0,0,0,0,0,0,0,0,0,0,0,0,0,0,0,0,0,0,0,0,0,0,0,0,0,0,0,0,0,0,0,0,0,0,0,0,0,0,0,0,0,0,0,0,0,0,0,0,0,0,0,0,0,0,0,0,0,0,0,0,0,0,0,0,0,0,0,0,0,0,0,0,0,0,0,0,0,0,0,0],"sum_hessian":[1.0162592E4,7.416769E3,2.745823E3,6.951485E3,4.6528397E2,1.7123629E3,1.0334602E3,6.7628213E3,1.8866345E2,2.3102997E2,2.3425401E2,7.5915906E2,9.5320386E2,8.201908E2,2.1326935E2,5.9998896E3,7.6293176E2,1.5762682E2,3.1036646E1,1.6836423E2,6.2665733E1,1.451647E2,8.90893E1,5.1531433E2,2.4384468E2,3.87436E2,5.657678E2,4.352164E2,3.849744E2,1.3311523E2,8.015412E1,5.168045E3,8.318447E2,3.8205606E2,3.808757E2,1.20110085E2,3.7516727E1,2.343008E1,7.606565E0,9.3132774E1,7.523146E1,4.4278748E1,1.8386984E1,3.2389576E1,1.1277513E2,3.926947E1,4.9819828E1,4.0788614E2,1.0742821E2,1.8728296E2,5.656172E1,2.6683313E2,1.20602875E2,4.334474E2,1.3232047E2,4.194916E2,1.5724786E1,2.0853238E2,1.7644202E2,1.04441605E2,2.8673624E1,5.3623962E1,2.6530157E1,5.0019375E3,1.6610732E2,5.9420605E2,2.3763866E2,3.4852335E2,3.353272E1,2.6055923E2,1.2031649E2,2.8319597E1,9.179049E1,3.6246613E1,1.2701135E0,1.5608423E0,2.1869238E1,2.3280253E0,5.2785397E0,6.655504E1,2.6577732E1,7.326108E1,1.9703834E0,2.4562046E1,1.9716702E1,8.07452E0,1.0312465E1,2.6117931E1,6.2716427E0,1.087024E2,4.07273E0,3.608395E1,3.185522E0,3.5142857E1,1.4676975E1,2.317017E2,1.7618443E2,7.274398E1,3.4684223E1,1.3681004E2,5.047291E1,4.88847E1,7.67702E0,1.8011507E2,8.671806E1,1.0172566E0,1.1958562E2,4.1179E2,2.1657364E1,5.6471607E1,7.584886E1,4.0107266E2,1.8418966E1,1.1827693E1,3.8970933E0,9.490502E1,1.1362736E2,2.4944952E1,1.5149707E2,4.540809E1,5.9033516E1,1.9912254E1,8.761371E0,4.9611393E1,4.0125675E0,1.5564896E1,1.0965261E1],"tree_param":{"num_deleted":"0","num_feature":"54","num_nodes":"127","size_leaf_vector":"1"}},{"base_weights":[4.8159555E-1,5.894967E-1,1.328141E-1,6.4065546E-1,2.6463244E-2,-9.87885E-2,3.6513102E-1,7.037604E-1,4.8802924E-1,1.8668486E-1,-2.9267493E-1,4.710934E-2,-4.94999E-1,5.6196266E-1,1.6733201E-1,7.3145866E-1,9.430978E-2,5.288781E-1,1.2997636E-1,-1.6149653E-2,4.810855E-1,-5.106519E-1,-1.0546371E-1,-3.898168E-2,6.762931E-1,-5.408088E-1,1.9353195E-1,6.167229E-1,-8.688908E-5,-2.3214245E-2,4.307506E-1,7.4460727E-1,-7.88254E-2,4.7363263E-1,-2.7227518E-1,5.746409E-1,2.1239884E-1,-9.911657E-2,5.142605E-1,-2.1891542E-1,4.6161845E-1,5.728424E-1,-3.500192E-1,-5.4471755E-1,1.567485E-1,1.5972959E-1,-4.728273E-1,1.03243954E-1,-3.4114146E-1,7.8304046E-1,3.5381585E-2,-4.3929222E-1,-5.6994236E-1,-3.9605986E-2,6.7827135E-1,6.455932E-1,-1.0644069E-1,-1.3540982E-1,9.788235E-1,-2.6400906E-1,4.1519806E-1,4.9122766E-1,-5.7128605E-2,2.3324585E-1,1.6084501E-1,-1.8028581E-1,3.247328E-2,1.9233617E-1,3.0400427E-3,-1.14419885E-1,1.8169989E-1,1.2492794E-1,1.9535273E-1,1.1954253E-3,1.7181076E-1,-5.9321128E-2,2.164087E-1,1.0628846E-1,2.4132256E-1,3.8342834E-2,-1.4162426E-1,2.662972E-1,-1.716828E-1,2.1849184E-1,9.4153695E-2,-1.3383871E-1,1.5158471E-1,-1.6703658E-1,2.7745913E-3,2.1940444E-1,-9.628801E-2,1.2327002E-1,-7.0867114E-2,-8.0904745E-2,-1.7298871E-1,7.3845826E-2,-1.13249935E-1,-1.3081732E-1,-3.6573835E-2,2.6593485E-1,1.4757326E-1,-1.4533181E-1,6.1041318E-2,-1.6833642E-1,-6.7124754E-2,-1.7253925E-1,-3.299722E-2,5.203705E-2,-1.4285149E-1,2.6766592E-1,-1.2805259E-1,2.1163376E-1,1.1519181E-1,-9.5623516E-2,3.0357695E-1,-1.13963045E-1,1.3746612E-1,3.1348154E-1,1.0232248E-1,-1.1455216E-1,-1.8982112E-2,1.4903592E-1,-8.7000206E-2,1.5963404E-1,-1.1503729E-1,-1.4095977E-1,5.3034835E-2],"categories":[],"categories_nodes":[],"categories_segments":[],"categories_sizes":[],"default_left":[0,0,0,0,0,0,0,0,0,0,0,0,0,0,0,0,0,0,0,0,0,0,0,0,0,0,0,0,0,0,0,0,0,0,0,0,0,0,0,0,0,0,0,0,0,0,0,0,0,0,0,0,0,0,0,0,0,0,0,0,0,0,0,0,0,0,0,0,0,0,0,0,0,0,0,0,0,0,0,0,0,0,0,0,0,0,0,0,0,0,0,0,0,0,0,0,0,0,0,0,0,0,0,0,0,0,0,0,0,0,0,0,0,0,0,0,0,0,0,0,0,0,0,0,0,0,0],"id":9,"left_children":[1,3,5,7,9,11,13,15,17,19,21,23,25,27,29,31,33,35,37,39,41,43,45,47,49,51,53,55,57,59,61,63,65,67,69,71,73,75,77,79,81,83,85,87,89,91,93,95,97,99,101,103,105,107,109,111,113,115,117,119,121,123,125,-1,-1,-1,-1,-1,-1,-1,-1,-1,-1,-1,-1,-1,-1,-1,-1,-1,-1,-1,-1,-1,-1,-1,-1,-1,-1,-1,-1,-1,-1,-1,-1,-1,-1,-1,-1,-1,-1,-1,-1,-1,-1,-1,-1,-1,-1,-1,-1,-1,-1,-1,-1,-1,-1,-1,-1,-1,-1,-1,-1,-1,-1,-1,-1],"loss_changes":[5.6379663E2,3.2958228E2,1.9058115E2,1.0068652E2,4.8843693E1,1.02583595E2,6.874669E1,1.25168945E2,4.485736E1,3.79775E1,1.2976444E1,7.0315025E1,1.5168243E1,2.7264221E1,4.4348213E1,7.566333E1,4.513624E1,3.98042E1,2.7859396E1,3.666562E1,1.998322E1,3.4336853E0,1.6933256E1,4.912925E1,1.0661407E1,1.0747681E0,3.4769788E0,1.6921204E1,1.0682897E1,5.432076E1,1.0969444E1,4.744409E1,1.1221219E1,1.2370537E1,1.6061064E1,2.888617E1,2.6269188E1,1.6223446E1,5.198242E0,2.3379646E1,5.0185448E1,9.193329E0,2.3966646E0,9.4361496E-1,2.4110641E0,1.0165639E1,1.3795452E0,5.3511524E1,7.5596657E0,3.5945663E0,2.1391819E0,2.6125946E0,7.595215E-1,2.0879447E0,2.738059E0,1.1885651E1,7.8839054E0,1.0455988E1,5.65691E-2,7.83045E0,1.0641172E1,1.2006699E1,4.1179595E0,0E0,0E0,0E0,0E0,0E0,0E0,0E0,0E0,0E0,0E0,0E0,0E0,0E0,0E0,0E0,0E0,0E0,0E0,0E0,0E0,0E0,0E0,0E0,0E0,0E0,0E0,0E0,0E0,0E0,0E0,0E0,0E0,0E0,0E0,0E0,0E0,0E0,0E0,0E0,0E0,0E0,0E0,0E0,0E0,0E0,0E0,0E0,0E0,0E0,0E0,0E0,0E0,0E0,0E0,0E0,0E0,0E0,0E0,0E0,0E0,0E0,0E0,0E0,0E0],"parents":[2147483647,0,0,1,1,2,2,3,3,4,4,5,5,6,6,7,7,8,8,9,9,10,10,11,11,12,12,13,13,14,14,15,15,16,16,17,17,18,18,19,19,20,20,21,21,22,22,23,23,24,24,25,25,26,26,27,27,28,28,29,29,30,30,31,31,32,32,33,33,34,34,35,35,36,36,37,37,38,38,39,39,40,40,41,41,42,42,43,43,44,44,45,45,46,46,47,47,48,48,49,49,50,50,51,51,52,52,53,53,54,54,55,55,56,56,57,57,58,58,59,59,60,60,61,61,62,62],"right_children":[2,4,6,8,10,12,14,16,18,20,22,24,26,28,30,32,34,36,38,40,42,44,46,48,50,52,54,56,58,60,62,64,66,68,70,72,74,76,78,80,82,84,86,88,90,92,94,96,98,100,102,104,106,108,110,112,114,116,118,120,122,124,126,-1,-1,-1,-1,-1,-1,-1,-1,-1,-1,-1,-1,-1,-1,-1,-1,-1,-1,-1,-1,-1,-1,-1,-1,-1,-1,-1,-1,-1,-1,-1,-1,-1,-1,-1,-1,-1,-1,-1,-1,-1,-1,-1,-1,-1,-1,-1,-1,-1,-1,-1,-1,-1,-1,-1,-1,-1,-1,-1,-1,-1,-1,-1,-1],"split_conditions":[2E0,1E2,3.5E1,1E0,7E0,4E0,1E0,1.2E1,4.5E-1,1E0,1E0,7E0,1E1,6E0,2E0,1.981E3,4.5E1,4.54E2,5.2E1,5.5E1,1.81E2,8.18E-1,1.8E1,5.19E-1,1.2E1,1E0,1.7E1,1.64E2,1.2E1,8E1,5E0,4.5E-1,6.5E1,2.1E1,4E-2,3E1,6.3E1,1E1,1E0,1.23E2,1.824E3,1E0,2.4E-2,9.1E1,1.07E2,1.36E2,2.3E1,1E0,1.9E1,8.42E-1,2.1E1,1.6E1,9E0,6.88E-1,3E0,3.3E1,1.04E2,1.07E2,1E0,1E0,6E0,3.9E1,6.1E1,2.3324585E-1,1.6084501E-1,-1.8028581E-1,3.247328E-2,1.9233617E-1,3.0400427E-3,-1.14419885E-1,1.8169989E-1,1.2492794E-1,1.9535273E-1,1.1954253E-3,1.7181076E-1,-5.9321128E-2,2.164087E-1,1.0628846E-1,2.4132256E-1,3.8342834E-2,-1.4162426E-1,2.662972E-1,-1.716828E-1,2.1849184E-1,9.4153695E-2,-1.3383871E-1,1.5158471E-1,-1.6703658E-1,2.7745913E-3,2.1940444E-1,-9.628801E-2,1.2327002E-1,-7.0867114E-2,-8.0904745E-2,-1.7298871E-1,7.3845826E-2,-1.13249935E-1,-1.3081732E-1,-3.6573835E-2,2.6593485E-1,1.4757326E-1,-1.4533181E-1,6.1041318E-2,-1.6833642E-1,-6.7124754E-2,-1.7253925E-1,-3.299722E-2,5.203705E-2,-1.4285149E-1,2.6766592E-1,-1.2805259E-1,2.1163376E-1,1.1519181E-1,-9.5623516E-2,3.0357695E-1,-1.13963045E-1,1.3746612E-1,3.1348154E-1,1.0232248E-1,-1.1455216E-1,-1.8982112E-2,1.4903592E-1,-8.7000206E-2,1.5963404E-1,-1.1503729E-1,-1.4095977E-1,5.3034835E-2],"split_indices":[28,11,11,14,17,28,14,17,33,14,14,17,17,28,17,27,11,13,11,12,11,33,17,33,14,26,17,11,17,11,28,33,12,17,33,11,11,17,15,11,27,15,34,12,11,11,17,14,11,33,24,11,17,33,26,12,12,11,6,15,28,17,11,0,0,0,0,0,0,0,0,0,0,0,0,0,0,0,0,0,0,0,0,0,0,0,0,0,0,0,0,0,0,0,0,0,0,0,0,0,0,0,0,0,0,0,0,0,0,0,0,0,0,0,0,0,0,0,0,0,0,0,0,0,0,0,0],"split_type":[0,0,0,0,0,0,0,0,0,0,0,0,0,0,0,0,0,0,0,0,0,0,0,0,0,0,0,0,0,0,0,0,0,0,0,0,0,0,0,0,0,0,0,0,0,0,0,0,0,0,0,0,0,0,0,0,0,0,0,0,0,0,0,0,0,0,0,0,0,0,0,0,0,0,0,0,0,0,0,0,0,0,0,0,0,0,0,0,0,0,0,0,0,0,0,0,0,0,0,0,0,0,0,0,0,0,0,0,0,0,0,0,0,0,0,0,0,0,0,0,0,0,0,0,0,0,0],"sum_hessian":[1.4982166E4,1.1441778E4,3.5403875E3,1.0488615E4,9.53163E2,1.7732073E3,1.7671803E3,7.4179683E3,3.0706467E3,6.3485333E2,3.183097E2,1.2966272E3,4.7658005E2,8.848334E2,8.823469E2,7.095301E3,3.2266754E2,2.755774E3,3.148728E2,3.7644055E2,2.5841278E2,1.4627206E2,1.7203763E2,1.1413893E3,1.552379E2,4.470511E2,2.952898E1,8.061894E2,7.8643936E1,5.125216E2,3.6982532E2,6.9820825E3,1.1321821E2,1.5843515E2,1.6423238E2,2.4069187E3,3.488554E2,1.9773448E2,1.17138336E2,2.6466006E2,1.1178049E2,2.3299954E2,2.5413229E1,1.3934346E2,6.9286017E0,1.00240776E2,7.179685E1,7.765351E2,3.6485425E2,1.3288364E2,2.2354265E1,1.0327275E2,3.4377832E2,2.0559214E1,8.969766E0,7.753432E2,3.0846224E1,6.984971E1,8.794233E0,3.3107748E2,1.8144412E2,3.2903198E2,4.0793358E1,6.028509E3,9.53574E2,2.9280739E1,8.393748E1,1.1609895E2,4.23362E1,1.4657883E2,1.7653555E1,7.8682275E2,1.620096E3,2.2165329E2,1.272021E2,1.7719489E2,2.0539598E1,7.6940346E1,4.019799E1,1.11900696E2,1.5275938E2,7.926079E1,3.25197E1,1.444693E2,8.8530235E1,2.32761E1,2.137129E0,1.3636691E2,2.9765394E0,2.9042943E0,4.0243073E0,6.1310863E1,3.892991E1,2.5496698E1,4.630015E1,5.989697E2,1.7756538E2,2.5392638E2,1.10927864E2,9.65458E1,3.6337845E1,5.002347E0,1.7351917E1,6.495539E1,3.8317364E1,3.3969598E2,4.08235E0,1.4221291E1,6.3379235E0,7.6762915E0,1.2934744E0,6.296074E2,1.4573575E2,2.6525711E1,4.3205132E0,4.973009E1,2.0119616E1,7.3896704E0,1.4045631E0,2.0805006E2,1.2302742E2,1.628936E2,1.8550524E1,3.147129E2,1.431909E1,1.4391241E1,2.6402119E1],"tree_param":{"num_deleted":"0","num_feature":"54","num_nodes":"127","size_leaf_vector":"1"}},{"base_weights":[-1.6626768E-1,-3.5974628E-1,-1.7365893E-2,-4.685654E-1,-1.412363E-1,8.3836794E-2,-2.4391688E-1,-5.129786E-1,-2.8866211E-2,-4.045373E-2,-4.0980208E-1,1.2809478E-1,-3.8369817E-1,-3.559996E-1,-1.2871167E-1,-5.530286E-1,-4.6509257E-1,3.1185555E-1,-3.041629E-1,6.3552976E-2,-3.0355418E-1,-4.2620617E-1,-2.8474502E-2,1.7827222E-1,-2.4866173E-1,-2.3924118E-1,-5.596271E-1,-4.2502734E-1,-1.4744024E-1,-9.524296E-3,-2.8095046E-1,-5.5603844E-1,1.7303902E-1,-4.45496E-1,-5.5372757E-1,3.5487592E-1,-1.7776215E-1,-1.0837973E-1,-4.7824472E-1,3.1671192E-2,4.029243E-1,-3.7050647E-1,-8.187607E-2,-3.060311E-1,-4.475387E-1,3.2188487E-1,-3.6248764E-1,2.3854445E-1,7.0669614E-2,-3.6461276E-1,7.4990657E-3,-3.3933717E-1,2.3837194E-1,-5.7138306E-1,1.5731254E-1,-4.830004E-1,-2.3191912E-1,-2.1406159E-1,2.7810764E-1,3.9417975E-2,-3.473473E-1,-2.3330045E-1,-5.243819E-1,-1.7011786E-1,-1.0563171E-1,3.4650344E-1,-5.4060567E-2,-1.4728676E-1,-1.2612487E-1,-1.6729201E-1,4.7945227E-2,8.201947E-2,1.912421E-1,-2.4695823E-3,-1.7193237E-1,-6.0866173E-2,-1.5948306E-1,4.6970595E-2,-2.6221776E-2,3.1029707E-1,9.686935E-2,-1.1782929E-1,1.1789678E-1,4.543827E-2,-9.577162E-2,-1.1365432E-1,2.6576929E-2,-1.0344609E-1,-1.4475766E-1,-7.95434E-2,2.0257387E-1,-1.6107035E-1,4.23061E-2,7.678377E-2,9.886543E-3,-9.823682E-3,5.3653337E-2,-1.38325E-1,2.0457625E-2,3.1942733E-2,-1.3066377E-1,-4.6958912E-2,-1.7080542E-1,2.4233451E-1,3.198988E-2,-1.7484076E-1,1.5634447E-1,-7.356325E-2,-1.481502E-1,-1.15089715E-1,4.8562035E-2,-2.0259155E-2,-1.2018821E-1,1.6743675E-1,-7.695234E-2,1.9917486E-2,-1.3832337E-1,-1.11937754E-1,1.9564974E-1,-9.345223E-2,-1.5835417E-2,4.6340454E-2,-1.6152447E-1],"categories":[],"categories_nodes":[],"categories_segments":[],"categories_sizes":[],"default_left":[0,0,0,0,0,0,0,0,0,0,0,0,0,0,0,0,0,0,0,0,0,0,0,0,0,0,0,0,0,0,0,0,0,0,0,0,0,0,0,0,0,0,0,0,0,0,0,0,0,0,0,0,0,0,0,0,0,0,0,0,0,0,0,0,0,0,0,0,0,0,0,0,0,0,0,0,0,0,0,0,0,0,0,0,0,0,0,0,0,0,0,0,0,0,0,0,0,0,0,0,0,0,0,0,0,0,0,0,0,0,0,0,0,0,0,0,0,0,0,0,0,0,0],"id":10,"left_children":[1,3,5,7,9,11,13,15,17,19,21,23,25,27,29,31,33,35,37,39,41,43,45,47,49,51,53,55,57,59,61,63,65,67,69,71,-1,73,75,77,79,81,83,85,87,89,91,93,95,97,99,101,103,105,-1,107,109,111,113,115,117,119,121,-1,-1,-1,-1,-1,-1,-1,-1,-1,-1,-1,-1,-1,-1,-1,-1,-1,-1,-1,-1,-1,-1,-1,-1,-1,-1,-1,-1,-1,-1,-1,-1,-1,-1,-1,-1,-1,-1,-1,-1,-1,-1,-1,-1,-1,-1,-1,-1,-1,-1,-1,-1,-1,-1,-1,-1,-1,-1,-1,-1],"loss_changes":[3.1171332E2,1.1182446E2,1.4023335E2,6.132074E1,4.236446E1,8.753354E1,2.434037E1,5.213684E0,2.7222101E1,3.1205017E1,2.6597748E0,7.307378E1,9.164234E0,1.3710228E1,1.692436E1,3.4794006E0,2.020935E0,5.2580633E0,5.41722E0,8.833481E0,4.764374E0,9.12735E-1,2.3037188E0,2.2095917E1,1.3500542E1,9.768922E0,2.3923073E0,7.928955E0,6.8475723E0,8.681924E0,4.628895E0,3.2660217E0,2.6895795E0,1.0183563E0,7.375183E-1,2.6917477E0,0E0,3.5705304E0,1.1360016E0,1.1145302E1,3.209446E0,4.365959E0,4.269883E0,1.8981357E0,1.0755081E0,2.1809435E0,9.572264E-1,7.808609E0,1.3716232E1,1.3094055E1,6.298859E0,6.972864E0,2.5917668E0,2.3364868E0,0E0,1.2996216E0,1.0084989E1,5.647895E0,5.0600853E0,6.2248774E0,1.9553528E0,4.845024E0,7.1429825E-1,0E0,0E0,0E0,0E0,0E0,0E0,0E0,0E0,0E0,0E0,0E0,0E0,0E0,0E0,0E0,0E0,0E0,0E0,0E0,0E0,0E0,0E0,0E0,0E0,0E0,0E0,0E0,0E0,0E0,0E0,0E0,0E0,0E0,0E0,0E0,0E0,0E0,0E0,0E0,0E0,0E0,0E0,0E0,0E0,0E0,0E0,0E0,0E0,0E0,0E0,0E0,0E0,0E0,0E0,0E0,0E0,0E0,0E0,0E0,0E0],"parents":[2147483647,0,0,1,1,2,2,3,3,4,4,5,5,6,6,7,7,8,8,9,9,10,10,11,11,12,12,13,13,14,14,15,15,16,16,17,17,18,18,19,19,20,20,21,21,22,22,23,23,24,24,25,25,26,26,27,27,28,28,29,29,30,30,31,31,32,32,33,33,34,34,35,35,37,37,38,38,39,39,40,40,41,41,42,42,43,43,44,44,45,45,46,46,47,47,48,48,49,49,50,50,51,51,52,52,53,53,55,55,56,56,57,57,58,58,59,59,60,60,61,61,62,62],"right_children":[2,4,6,8,10,12,14,16,18,20,22,24,26,28,30,32,34,36,38,40,42,44,46,48,50,52,54,56,58,60,62,64,66,68,70,72,-1,74,76,78,80,82,84,86,88,90,92,94,96,98,100,102,104,106,-1,108,110,112,114,116,118,120,122,-1,-1,-1,-1,-1,-1,-1,-1,-1,-1,-1,-1,-1,-1,-1,-1,-1,-1,-1,-1,-1,-1,-1,-1,-1,-1,-1,-1,-1,-1,-1,-1,-1,-1,-1,-1,-1,-1,-1,-1,-1,-1,-1,-1,-1,-1,-1,-1,-1,-1,-1,-1,-1,-1,-1,-1,-1,-1,-1,-1],"split_conditions":[1E0,1E0,5.1E1,8.42E-1,3E0,5E0,3E0,3.5E1,1.3E1,6E1,7.65E-1,7E0,7E0,3E0,8.3E1,1.11E3,1.05E2,2E0,2.7E1,5.71E2,3.4E1,6E0,7.8E1,2.3E1,1E0,4E0,3.6E1,5.1E1,4.9E1,1.4E1,1.8E1,1.1E1,1.15E3,5.1E1,1.81E2,1.34E2,-1.7776215E-1,2E0,1E0,3E1,3.4E1,2.54E2,8E1,1E0,1.95E4,2.3E1,2.18E2,4E0,2E0,3E0,1.8E1,7.65E-1,1.71E4,1.8E1,1.5731254E-1,1.2895E4,2E0,8.6E1,5E0,6E0,8E0,3E0,9E3,-1.7011786E-1,-1.0563171E-1,3.4650344E-1,-5.4060567E-2,-1.4728676E-1,-1.2612487E-1,-1.6729201E-1,4.7945227E-2,8.201947E-2,1.912421E-1,-2.4695823E-3,-1.7193237E-1,-6.0866173E-2,-1.5948306E-1,4.6970595E-2,-2.6221776E-2,3.1029707E-1,9.686935E-2,-1.1782929E-1,1.1789678E-1,4.543827E-2,-9.577162E-2,-1.1365432E-1,2.6576929E-2,-1.0344609E-1,-1.4475766E-1,-7.95434E-2,2.0257387E-1,-1.6107035E-1,4.23061E-2,7.678377E-2,9.886543E-3,-9.823682E-3,5.3653337E-2,-1.38325E-1,2.0457625E-2,3.1942733E-2,-1.3066377E-1,-4.6958912E-2,-1.7080542E-1,2.4233451E-1,3.198988E-2,-1.7484076E-1,1.5634447E-1,-7.356325E-2,-1.481502E-1,-1.15089715E-1,4.8562035E-2,-2.0259155E-2,-1.2018821E-1,1.6743675E-1,-7.695234E-2,1.9917486E-2,-1.3832337E-1,-1.11937754E-1,1.9564974E-1,-9.345223E-2,-1.5835417E-2,4.6340454E-2,-1.6152447E-1],"split_indices":[28,14,11,33,17,28,14,11,11,11,33,17,28,28,11,27,11,10,11,13,12,17,30,11,14,17,28,12,12,17,17,17,27,11,12,30,0,17,9,11,11,24,11,44,29,24,30,28,28,28,17,33,29,17,0,29,28,11,28,28,26,28,29,0,0,0,0,0,0,0,0,0,0,0,0,0,0,0,0,0,0,0,0,0,0,0,0,0,0,0,0,0,0,0,0,0,0,0,0,0,0,0,0,0,0,0,0,0,0,0,0,0,0,0,0,0,0,0,0,0,0,0,0],"split_type":[0,0,0,0,0,0,0,0,0,0,0,0,0,0,0,0,0,0,0,0,0,0,0,0,0,0,0,0,0,0,0,0,0,0,0,0,0,0,0,0,0,0,0,0,0,0,0,0,0,0,0,0,0,0,0,0,0,0,0,0,0,0,0,0,0,0,0,0,0,0,0,0,0,0,0,0,0,0,0,0,0,0,0,0,0,0,0,0,0,0,0,0,0,0,0,0,0,0,0,0,0,0,0,0,0,0,0,0,0,0,0,0,0,0,0,0,0,0,0,0,0,0,0],"sum_hessian":[1.08191E4,4.704628E3,6.1144717E3,3.1398313E3,1.5647968E3,4.226901E3,1.8875707E3,2.851627E3,2.8820438E2,1.1386537E3,4.2614304E2,3.862037E3,3.648637E2,9.556917E2,9.3187897E2,1.5471248E3,1.3045023E3,1.2873827E2,1.594661E2,8.166004E2,3.220533E2,4.0845435E2,1.768871E1,3.408598E3,4.5343927E2,2.0164822E2,1.6321548E2,7.172595E2,2.384322E2,5.2327264E2,4.0860632E2,1.540971E3,6.153758E0,1.0732423E3,2.3125995E2,1.2347253E2,5.2657385E0,7.5818504E1,8.364759E1,7.474734E2,6.912705E1,2.4683241E2,7.52209E1,6.3888668E1,3.4456567E2,8.650829E0,9.03788E0,2.1840261E3,1.2245715E3,3.1185492E2,1.4158434E2,1.6694928E2,3.4698956E1,1.6193222E2,1.2832566E0,5.5049426E2,1.6676523E2,2.0658708E2,3.1845123E1,4.5782794E2,6.5444725E1,3.433553E2,6.525104E1,1.4602733E3,8.0697624E1,1.0275426E0,5.1262155E0,3.7497815E2,6.9826416E2,2.3021616E2,1.0438032E0,9.7367325E1,2.61052E1,6.32138E1,1.2604706E1,1.4359043E1,6.928855E1,3.6466702E2,3.8280634E2,6.4345403E0,6.2692513E1,2.4031227E2,6.520142E0,3.8114613E1,3.7106285E1,5.3969944E1,9.918724E0,9.030198E1,2.5426369E2,3.3444445E0,5.3063846E0,6.663385E0,2.3744955E0,2.0133663E3,1.7065993E2,6.264154E2,5.981562E2,2.5495996E2,5.6894955E1,1.1635106E2,2.5233278E1,9.395642E1,7.299285E1,5.5554023E0,2.9143553E1,1.607189E2,1.213325E0,2.5017237E1,5.2547705E2,1.2040398E2,4.636125E1,1.1647116E2,9.011593E1,2.0870066E1,1.0975057E1,4.352386E2,2.2589327E1,6.441021E1,1.0345161E0,2.3905917E2,1.0429612E2,1.118855E0,6.413218E1],"tree_param":{"num_deleted":"0","num_feature":"54","num_nodes":"123","size_leaf_vector":"1"}},{"base_weights":[-2.5211948E-1,-4.265574E-1,4.087281E-1,-5.4146695E-1,-2.2681566E-1,2.0327707E-1,7.181055E-1,-5.8163255E-1,-3.212531E-1,-4.334846E-1,-5.146594E-2,3.8608488E-1,-9.9813975E-2,8.038237E-1,3.134319E-1,-1.7701831E-1,-5.124874E-1,-4.5697057E-1,-4.6489567E-2,-4.761304E-1,-2.031052E-1,1.0473605E-1,-4.2723787E-1,2.519063E-1,7.7304626E-1,-5.1811504E-1,1.5303092E-1,8.471166E-1,4.910007E-1,1.16965316E-1,8.279867E-1,-3.505692E-1,-5.7051426E-1,-3.3673254E-1,-1.8004307E-1,1.8933702E-1,-4.8586607E-1,-4.8380727E-1,2.9920822E-1,3.8165513E-1,-2.8506744E-1,1.9190527E-1,-3.9191285E-1,-2.4397689E-1,-5.2131414E-1,-3.1810176E-2,4.5947826E-1,6.1781204E-1,9.169148E-1,-5.518003E-1,-2.9458383E-1,3.3786744E-1,-3.10807E-1,8.507636E-1,-1.3834266E-1,2.1877424E-1,8.799099E-1,-2.3165706E-1,4.2084014E-1,9.0904176E-1,-1.2888949E-1,-1.2649547E-1,4.52415E-2,-3.0173311E-2,-1.7272633E-1,-1.8145306E-2,-1.5002015E-1,7.385298E-2,-1.5497167E-1,-6.8637304E-2,-1.6597147E-1,-1.5152438E-1,-5.5395007E-2,-1.5291207E-1,2.4387376E-1,2.3387687E-1,-6.819712E-2,-4.4160746E-2,-1.6812316E-1,1.7892104E-2,1.6201016E-1,-1.3354897E-1,1.8898304E-1,-1.0668423E-1,4.739524E-2,-1.6259456E-1,9.343904E-3,1.3346383E-1,-3.6869902E-2,1.5971534E-1,-1.3932532E-2,-3.9776575E-2,2.0409611E-1,2.7946308E-1,-2.5531918E-2,-1.8216062E-1,-1.505395E-1,3.791349E-2,-1.5541272E-1,1.546347E-1,-6.147439E-2,-1.0844335E-1,1.6497314E-1,2.2688209E-1,2.6771313E-1,3.3189826E-2,3.4284493E-1,2.8330114E-1,1.1362576E-1,-1.5554568E-1,1.8450196E-1,1.6938463E-1,-1.1148666E-1,2.79518E-1,1.6321557E-2],"categories":[],"categories_nodes":[],"categories_segments":[],"categories_sizes":[],"default_left":[0,0,0,0,0,0,0,0,0,0,0,0,0,0,0,0,0,0,0,0,0,0,0,0,0,0,0,0,0,0,0,0,0,0,0,0,0,0,0,0,0,0,0,0,0,0,0,0,0,0,0,0,0,0,0,0,0,0,0,0,0,0,0,0,0,0,0,0,0,0,0,0,0,0,0,0,0,0,0,0,0,0,0,0,0,0,0,0,0,0,0,0,0,0,0,0,0,0,0,0,0,0,0,0,0,0,0,0,0,0,0,0,0,0,0],"id":11,"left_children":[1,3,5,7,9,11,13,15,17,19,21,23,25,27,29,-1,31,33,35,37,39,41,43,45,47,49,51,53,55,57,59,61,63,65,-1,67,69,71,73,75,77,79,81,83,85,87,89,91,93,95,97,99,101,103,-1,105,107,109,111,113,-1,-1,-1,-1,-1,-1,-1,-1,-1,-1,-1,-1,-1,-1,-1,-1,-1,-1,-1,-1,-1,-1,-1,-1,-1,-1,-1,-1,-1,-1,-1,-1,-1,-1,-1,-1,-1,-1,-1,-1,-1,-1,-1,-1,-1,-1,-1,-1,-1,-1,-1,-1,-1,-1,-1],"loss_changes":[1.1883123E3,1.8704968E2,1.3669952E2,4.5595215E1,1.0796556E2,7.180071E1,2.95372E1,2.2480469E0,2.9836128E1,1.3339966E1,9.473423E1,4.176339E1,5.17004E1,9.172913E0,1.5243905E1,0E0,4.33902E0,9.022224E0,2.7637552E1,7.009247E0,1.0430895E1,4.944297E1,8.042732E0,3.5439148E1,4.069458E0,1.2236862E0,2.6251358E1,3.3532104E0,9.172182E0,1.18547535E1,4.6480446E0,4.6983376E0,8.139725E-1,1.3213783E1,0E0,7.0970745E0,1.4864063E0,7.177002E0,5.369646E0,6.6967483E0,7.109535E0,4.4665745E1,9.562962E0,7.3538027E0,3.5822067E0,1.1130658E1,1.2839951E1,4.917389E0,1.6281967E0,1.3534164E-1,2.5352583E0,2.1171183E1,4.0114737E0,1.7598572E0,0E0,5.205999E0,8.076229E-1,1.30272875E1,7.0063677E0,7.162399E-1,0E0,0E0,0E0,0E0,0E0,0E0,0E0,0E0,0E0,0E0,0E0,0E0,0E0,0E0,0E0,0E0,0E0,0E0,0E0,0E0,0E0,0E0,0E0,0E0,0E0,0E0,0E0,0E0,0E0,0E0,0E0,0E0,0E0,0E0,0E0,0E0,0E0,0E0,0E0,0E0,0E0,0E0,0E0,0E0,0E0,0E0,0E0,0E0,0E0,0E0,0E0,0E0,0E0,0E0,0E0],"parents":[2147483647,0,0,1,1,2,2,3,3,4,4,5,5,6,6,7,7,8,8,9,9,10,10,11,11,12,12,13,13,14,14,16,16,17,17,18,18,19,19,20,20,21,21,22,22,23,23,24,24,25,25,26,26,27,27,28,28,29,29,30,30,31,31,32,32,33,33,35,35,36,36,37,37,38,38,39,39,40,40,41,41,42,42,43,43,44,44,45,45,46,46,47,47,48,48,49,49,50,50,51,51,52,52,53,53,55,55,56,56,57,57,58,58,59,59],"right_children":[2,4,6,8,10,12,14,16,18,20,22,24,26,28,30,-1,32,34,36,38,40,42,44,46,48,50,52,54,56,58,60,62,64,66,-1,68,70,72,74,76,78,80,82,84,86,88,90,92,94,96,98,100,102,104,-1,106,108,110,112,114,-1,-1,-1,-1,-1,-1,-1,-1,-1,-1,-1,-1,-1,-1,-1,-1,-1,-1,-1,-1,-1,-1,-1,-1,-1,-1,-1,-1,-1,-1,-1,-1,-1,-1,-1,-1,-1,-1,-1,-1,-1,-1,-1,-1,-1,-1,-1,-1,-1,-1,-1,-1,-1,-1,-1],"split_conditions":[3E0,1E0,5E0,6.25E-1,1E0,3.8E1,6.6E1,2E0,2E0,4.05E2,2E0,1E0,1E0,4E0,9E0,-1.7701831E-1,1.1E1,8.9E1,2.3E1,5.16E2,1.77E2,7.6E1,8E0,4.38E-1,2.08E-1,3.7E1,4E0,3.5E1,7E0,1E0,1.64E2,2.9E-1,9E3,1.2E1,-1.8004307E-1,6E0,2.9E1,5.62E-1,1E0,1E0,7.2E1,1.43E2,6.7E1,4.67E-1,5.71E2,6E0,3E0,3.6E1,7E0,4E-2,1E0,8.2E1,2E1,6E0,-1.3834266E-1,1E0,1.2E1,2.8E1,1.4E2,4E0,-1.2888949E-1,-1.2649547E-1,4.52415E-2,-3.0173311E-2,-1.7272633E-1,-1.8145306E-2,-1.5002015E-1,7.385298E-2,-1.5497167E-1,-6.8637304E-2,-1.6597147E-1,-1.5152438E-1,-5.5395007E-2,-1.5291207E-1,2.4387376E-1,2.3387687E-1,-6.819712E-2,-4.4160746E-2,-1.6812316E-1,1.7892104E-2,1.6201016E-1,-1.3354897E-1,1.8898304E-1,-1.0668423E-1,4.739524E-2,-1.6259456E-1,9.343904E-3,1.3346383E-1,-3.6869902E-2,1.5971534E-1,-1.3932532E-2,-3.9776575E-2,2.0409611E-1,2.7946308E-1,-2.5531918E-2,-1.8216062E-1,-1.505395E-1,3.791349E-2,-1.5541272E-1,1.546347E-1,-6.147439E-2,-1.0844335E-1,1.6497314E-1,2.2688209E-1,2.6771313E-1,3.3189826E-2,3.4284493E-1,2.8330114E-1,1.1362576E-1,-1.5554568E-1,1.8450196E-1,1.6938463E-1,-1.1148666E-1,2.79518E-1,1.6321557E-2],"split_indices":[28,14,28,33,28,11,11,28,28,13,17,14,14,17,28,0,11,27,11,14,27,11,17,33,33,12,17,9,28,14,11,33,29,11,0,17,11,33,15,4,11,13,12,33,13,11,17,13,2,33,38,11,12,28,0,16,17,12,11,5,0,0,0,0,0,0,0,0,0,0,0,0,0,0,0,0,0,0,0,0,0,0,0,0,0,0,0,0,0,0,0,0,0,0,0,0,0,0,0,0,0,0,0,0,0,0,0,0,0,0,0,0,0,0,0],"split_type":[0,0,0,0,0,0,0,0,0,0,0,0,0,0,0,0,0,0,0,0,0,0,0,0,0,0,0,0,0,0,0,0,0,0,0,0,0,0,0,0,0,0,0,0,0,0,0,0,0,0,0,0,0,0,0,0,0,0,0,0,0,0,0,0,0,0,0,0,0,0,0,0,0,0,0,0,0,0,0,0,0,0,0,0,0,0,0,0,0,0,0,0,0,0,0,0,0,0,0,0,0,0,0,0,0,0,0,0,0,0,0,0,0,0,0],"sum_hessian":[1.0305819E4,8.153871E3,2.1519487E3,5.17502E3,2.9788513E3,1.2941729E3,8.577759E2,4.3753438E3,7.9967584E2,1.3666415E3,1.6122097E3,8.0710046E2,4.870724E2,7.0702673E2,1.5074915E2,3.8932432E3,4.821009E2,5.3483484E2,2.6484103E2,1.1522759E3,2.1436562E2,1.1393307E3,4.728791E2,6.005212E2,2.0657932E2,1.831025E2,3.039699E2,6.195733E2,8.7453415E1,1.0998294E2,4.076621E1,1.290476E2,3.5305328E2,2.925231E2,2.4231174E2,1.7271095E2,9.213008E1,1.141351E3,1.0924872E1,2.5903114E1,1.8846251E2,9.697405E2,1.6959016E2,1.6162546E2,3.1125363E2,2.540811E2,3.4644006E2,1.0191128E2,1.0466804E2,1.5784702E2,2.5255474E1,2.175494E2,8.64205E1,6.1819965E2,1.3736442E0,5.236311E1,3.5090305E1,5.133089E1,5.8652046E1,3.8558254E1,2.207955E0,1.13162926E2,1.5884674E1,4.1161227E0,3.4893716E2,1.092012E2,1.8332188E2,1.6044336E2,1.2267582E1,2.0043825E1,7.208626E1,1.064932E3,7.6418976E1,4.246234E0,6.678638E0,1.5496705E1,1.0406409E1,1.2660546E2,6.1857044E1,7.0359436E2,2.6614612E2,1.6172672E2,7.863453E0,1.2658431E2,3.5041138E1,3.0004776E2,1.1205863E1,4.0139427E1,2.1394168E2,3.027584E2,4.368167E1,7.750217E0,9.416106E1,1.0323127E2,1.436766E0,6.959393E1,8.825308E1,8.908205E0,1.634727E1,1.6395781E2,5.3591583E1,8.216352E1,4.256977E0,1.9487598E2,4.2332367E2,4.787946E1,4.48365E0,3.0309496E1,4.780809E0,3.863121E1,1.269968E1,4.9888386E1,8.763661E0,3.7473385E1,1.08487E0],"tree_param":{"num_deleted":"0","num_feature":"54","num_nodes":"115","size_leaf_vector":"1"}},{"base_weights":[-2.486718E-1,-4.738794E-1,2.005948E-1,-5.2131087E-1,9.774665E-2,3.67599E-2,4.8846722E-1,-5.392072E-1,-1.4260723E-1,-1.3876697E-1,3.3860362E-1,-1.3005008E-1,3.9173684E-1,6.779608E-1,2.975815E-1,-5.570038E-1,-3.5140392E-1,-3.0517673E-1,5.756012E-1,-3.149409E-1,4.0016803E-1,4.9993375E-1,3.5056822E-2,9.785013E-2,-4.5609176E-1,4.684402E-2,5.650272E-1,7.270907E-1,1.1434086E-2,4.2572026E-3,5.02266E-1,-5.6961465E-1,-4.7593254E-1,-5.384075E-1,-1.606186E-1,-3.3316645E-1,9.108035E-1,7.948119E-1,-3.416492E-1,-1.7289443E-1,-5.1590115E-1,1.028691E-1,6.2146145E-1,-1.324662E-1,5.8098745E-1,-2.8653952E-1,3.512675E-1,2.7377698E-1,-3.670575E-1,-4.9927184E-1,-1.8364072E-1,-1.0857026E-1,4.6564403E-1,6.7753994E-1,3.651183E-1,7.6257575E-1,3.3431396E-1,-2.8805223E-1,5.130356E-1,-3.2396203E-1,3.239479E-1,5.707663E-1,-1.6835533E-2,-1.7095637E-1,-1.146291E-2,-1.7033301E-1,-1.0576039E-1,-1.7097513E-1,-1.18556984E-1,-1.282407E-1,4.9310967E-2,-1.5293863E-1,-5.4806273E-2,5.9781425E-2,4.1116646E-1,1.8870004E-1,3.9439103E-1,4.670801E-2,-1.5765126E-1,-1.1821122E-1,1.4398643E-2,-1.6133688E-1,5.0627057E-2,-5.5703327E-2,1.3885522E-1,2.4016853E-1,-3.8183497E-3,-1.2624235E-1,1.0146401E-1,1.8456304E-1,-2.5036803E-2,-1.04817115E-1,2.4193148E-1,4.9767066E-2,2.2059871E-1,9.474279E-2,-1.7794994E-1,-1.4553821E-1,-2.5737787E-2,-1.2998466E-1,-1.7359468E-1,-3.2937212E-3,-1.7305003E-1,2.8193777E-2,-1.1363041E-1,1.9109164E-1,-2.02302E-2,2.1839781E-1,-2.9393036E-2,6.315907E-2,1.8397002E-1,2.3538104E-1,9.010841E-2,1.5835723E-2,2.166477E-1,-1.4697725E-1,1.5405905E-1,2.3510875E-1,-3.42319E-2,-1.4813916E-1,-6.628527E-3,1.1482447E-2,1.4713512E-1,1.8243071E-1,-2.1807991E-2,-8.037911E-2,1.7927228E-1],"categories":[],"categories_nodes":[],"categories_segments":[],"categories_sizes":[],"default_left":[0,0,0,0,0,0,0,0,0,0,0,0,0,0,0,0,0,0,0,0,0,0,0,0,0,0,0,0,0,0,0,0,0,0,0,0,0,0,0,0,0,0,0,0,0,0,0,0,0,0,0,0,0,0,0,0,0,0,0,0,0,0,0,0,0,0,0,0,0,0,0,0,0,0,0,0,0,0,0,0,0,0,0,0,0,0,0,0,0,0,0,0,0,0,0,0,0,0,0,0,0,0,0,0,0,0,0,0,0,0,0,0,0,0,0,0,0,0,0,0,0,0,0,0,0,0,0],"id":12,"left_children":[1,3,5,7,9,11,13,15,17,19,21,23,25,27,29,31,33,35,37,39,41,43,45,47,49,51,53,55,57,59,61,63,65,67,69,71,73,75,77,79,81,83,85,87,89,91,93,95,97,99,101,103,105,107,109,111,113,115,117,119,121,123,125,-1,-1,-1,-1,-1,-1,-1,-1,-1,-1,-1,-1,-1,-1,-1,-1,-1,-1,-1,-1,-1,-1,-1,-1,-1,-1,-1,-1,-1,-1,-1,-1,-1,-1,-1,-1,-1,-1,-1,-1,-1,-1,-1,-1,-1,-1,-1,-1,-1,-1,-1,-1,-1,-1,-1,-1,-1,-1,-1,-1,-1,-1,-1,-1],"loss_changes":[9.075775E2,1.620415E2,1.4126086E2,3.731433E1,2.617223E1,1.1315592E2,3.909488E1,1.74104E1,2.9401894E1,2.2163197E1,1.1123928E1,9.665755E1,3.648456E1,1.7818924E1,3.259849E1,4.6466064E0,1.6278004E1,7.2726154E0,9.630998E0,4.920019E0,3.726962E0,7.6878014E0,8.239094E0,6.276073E1,6.2035522E0,1.3418545E1,8.895935E0,6.8116455E0,5.914729E0,2.3627972E1,1.1381622E1,5.0805664E-1,7.207062E0,8.18161E-1,1.9883776E1,5.2463017E0,1.3216696E0,2.4372272E0,9.6675956E-1,5.1144853E0,1.172245E0,2.7644024E0,3.7396488E0,2.5421681E0,3.0482788E0,3.045202E0,2.7829823E0,2.0461128E1,6.9570484E0,2.1657028E0,5.070936E0,8.278093E0,5.1371956E0,1.0202995E1,5.569206E0,4.490814E0,4.743373E0,4.2448955E0,2.5865724E0,5.6856966E0,5.4068127E0,6.8324127E0,6.061686E0,0E0,0E0,0E0,0E0,0E0,0E0,0E0,0E0,0E0,0E0,0E0,0E0,0E0,0E0,0E0,0E0,0E0,0E0,0E0,0E0,0E0,0E0,0E0,0E0,0E0,0E0,0E0,0E0,0E0,0E0,0E0,0E0,0E0,0E0,0E0,0E0,0E0,0E0,0E0,0E0,0E0,0E0,0E0,0E0,0E0,0E0,0E0,0E0,0E0,0E0,0E0,0E0,0E0,0E0,0E0,0E0,0E0,0E0,0E0,0E0,0E0,0E0,0E0,0E0],"parents":[2147483647,0,0,1,1,2,2,3,3,4,4,5,5,6,6,7,7,8,8,9,9,10,10,11,11,12,12,13,13,14,14,15,15,16,16,17,17,18,18,19,19,20,20,21,21,22,22,23,23,24,24,25,25,26,26,27,27,28,28,29,29,30,30,31,31,32,32,33,33,34,34,35,35,36,36,37,37,38,38,39,39,40,40,41,41,42,42,43,43,44,44,45,45,46,46,47,47,48,48,49,49,50,50,51,51,52,52,53,53,54,54,55,55,56,56,57,57,58,58,59,59,60,60,61,61,62,62],"right_children":[2,4,6,8,10,12,14,16,18,20,22,24,26,28,30,32,34,36,38,40,42,44,46,48,50,52,54,56,58,60,62,64,66,68,70,72,74,76,78,80,82,84,86,88,90,92,94,96,98,100,102,104,106,108,110,112,114,116,118,120,122,124,126,-1,-1,-1,-1,-1,-1,-1,-1,-1,-1,-1,-1,-1,-1,-1,-1,-1,-1,-1,-1,-1,-1,-1,-1,-1,-1,-1,-1,-1,-1,-1,-1,-1,-1,-1,-1,-1,-1,-1,-1,-1,-1,-1,-1,-1,-1,-1,-1,-1,-1,-1,-1,-1,-1,-1,-1,-1,-1,-1,-1,-1,-1,-1,-1],"split_conditions":[6.7E1,1.2E1,8E0,1.15E3,1.13E2,1.23E2,1E0,9E0,5E0,2.8E1,1E0,1E0,3.6E1,3E0,1.4E1,5E1,1.1E2,2.205E3,8E0,2E0,3.4E1,1.9E1,2.2E1,1E0,1.09E2,1.74E2,1E0,4.12E-1,1.16E2,1.07E2,3E0,1E0,9.8E1,5.2E1,3.7E1,5E1,2.85E4,1E0,9E0,1.8E1,7.4E1,1.04E2,4E-2,2E1,4.12E-1,6E0,3E0,5.19E-1,9.6E1,1E0,8E0,8E0,1.02E2,1.38E2,1E0,6.5E1,1.07E2,2.8E1,4E0,1.95E2,3E1,7.27E-1,3.8E1,-1.7095637E-1,-1.146291E-2,-1.7033301E-1,-1.0576039E-1,-1.7097513E-1,-1.18556984E-1,-1.282407E-1,4.9310967E-2,-1.5293863E-1,-5.4806273E-2,5.9781425E-2,4.1116646E-1,1.8870004E-1,3.9439103E-1,4.670801E-2,-1.5765126E-1,-1.1821122E-1,1.4398643E-2,-1.6133688E-1,5.0627057E-2,-5.5703327E-2,1.3885522E-1,2.4016853E-1,-3.8183497E-3,-1.2624235E-1,1.0146401E-1,1.8456304E-1,-2.5036803E-2,-1.04817115E-1,2.4193148E-1,4.9767066E-2,2.2059871E-1,9.474279E-2,-1.7794994E-1,-1.4553821E-1,-2.5737787E-2,-1.2998466E-1,-1.7359468E-1,-3.2937212E-3,-1.7305003E-1,2.8193777E-2,-1.1363041E-1,1.9109164E-1,-2.02302E-2,2.1839781E-1,-2.9393036E-2,6.315907E-2,1.8397002E-1,2.3538104E-1,9.010841E-2,1.5835723E-2,2.166477E-1,-1.4697725E-1,1.5405905E-1,2.3510875E-1,-3.42319E-2,-1.4813916E-1,-6.628527E-3,1.1482447E-2,1.4713512E-1,1.8243071E-1,-2.1807991E-2,-8.037911E-2,1.7927228E-1],"split_indices":[11,17,17,27,27,11,14,17,17,17,14,28,27,28,17,11,27,27,24,28,17,11,17,14,11,11,14,33,11,11,28,19,27,11,11,11,29,2,12,17,27,30,33,17,33,15,4,33,11,14,14,14,13,12,15,12,11,17,7,27,27,33,17,0,0,0,0,0,0,0,0,0,0,0,0,0,0,0,0,0,0,0,0,0,0,0,0,0,0,0,0,0,0,0,0,0,0,0,0,0,0,0,0,0,0,0,0,0,0,0,0,0,0,0,0,0,0,0,0,0,0,0,0,0,0,0,0],"split_type":[0,0,0,0,0,0,0,0,0,0,0,0,0,0,0,0,0,0,0,0,0,0,0,0,0,0,0,0,0,0,0,0,0,0,0,0,0,0,0,0,0,0,0,0,0,0,0,0,0,0,0,0,0,0,0,0,0,0,0,0,0,0,0,0,0,0,0,0,0,0,0,0,0,0,0,0,0,0,0,0,0,0,0,0,0,0,0,0,0,0,0,0,0,0,0,0,0,0,0,0,0,0,0,0,0,0,0,0,0,0,0,0,0,0,0,0,0,0,0,0,0,0,0,0,0,0,0],"sum_hessian":[8.9681455E3,5.973636E3,2.9945093E3,5.516025E3,4.5761154E2,1.9091151E3,1.0853942E3,5.266712E3,2.4931291E2,2.3110141E2,2.2651013E2,1.2992214E3,6.098936E2,5.434028E2,5.419914E2,4.809034E3,4.576774E2,2.0376494E2,4.5547966E1,1.7448059E2,5.6620808E1,1.4747997E2,7.903015E1,7.651137E2,5.341077E2,2.0438489E2,4.0550876E2,5.0601343E2,3.7389305E1,2.2318115E2,3.1881024E2,4.156458E3,6.5257654E2,2.3020927E2,2.2746812E2,1.9988985E2,3.8751035E0,3.6870007E1,8.6779585E0,1.0331436E2,7.116624E1,2.4786282E1,3.1834526E1,1.668278E1,1.307972E2,3.922793E1,3.9802223E1,5.55367E2,2.097467E2,4.6032025E2,7.3787476E1,1.4960725E2,5.4777637E1,2.579436E2,1.4756516E2,4.632226E2,4.2790844E1,2.3677906E1,1.37114E1,1.10115105E2,1.13066055E2,2.8155667E2,3.7253593E1,4.1545103E3,1.9478143E0,3.7205643E2,2.805201E2,1.8625223E2,4.395705E1,1.2473334E2,1.0273479E2,9.085653E1,1.0903332E2,2.083703E0,1.7914004E0,2.9629057E1,7.2409496E0,2.3835192E0,6.294439E0,5.1235905E1,5.2078457E1,6.916941E1,1.9968275E0,1.4027E1,1.075928E1,2.4619453E1,7.215073E0,1.0410928E1,6.271852E0,1.24460846E2,6.336345E0,3.773816E1,1.4897716E0,2.7810637E1,1.1991588E1,5.302924E2,2.5074614E1,1.4722115E2,6.252555E1,2.5488327E2,2.05437E2,5.198664E1,2.1800833E1,8.588048E1,6.372678E1,4.130694E1,1.3470698E1,2.4224516E2,1.5698436E1,9.205736E1,5.5507797E1,4.414853E2,2.1737314E1,2.5451939E1,1.7338907E1,1.922504E1,4.4528646E0,9.403453E0,4.307947E0,7.0061554E1,4.005355E1,4.2086655E1,7.09794E1,2.6616754E2,1.5389124E1,2.6846134E1,1.0407461E1],"tree_param":{"num_deleted":"0","num_feature":"54","num_nodes":"127","size_leaf_vector":"1"}},{"base_weights":[3.7919253E-1,4.637576E-1,1.0334808E-1,5.11069E-1,9.8762065E-2,-6.9182895E-2,3.0649775E-1,5.714627E-1,3.6886996E-1,1.764598E-1,-4.1910005E-1,5.0009817E-2,-4.4667938E-1,4.1711128E-1,1.1351656E-1,6.065024E-1,2.983143E-1,2.2011079E-1,4.6170607E-1,-7.1670716E-3,4.159089E-1,-4.517088E-1,5.7695024E-2,-3.6048763E-2,4.8333758E-1,-4.9732837E-1,1.5563613E-1,4.4224814E-1,-2.411324E-1,-6.0883503E-2,3.3257672E-1,4.6783626E-1,6.733978E-1,6.029537E-1,-2.9834282E-2,3.4110966E-1,-6.8254925E-2,4.7029236E-1,-4.6332338E-1,-1.8828516E-1,4.27652E-1,4.6353123E-1,-3.2795227E-1,-4.624332E-1,2.1293621E-1,5.0701255E-1,-1.6097584E-1,1.07503116E-1,-2.6335517E-1,5.8338183E-1,5.4080527E-2,-3.8465434E-1,-5.499023E-1,1.4524808E-2,7.776972E-1,4.5223185E-1,-5.482553E-1,-3.6973122E-1,6.7519635E-1,-2.0506637E-1,3.2727125E-1,3.7319165E-1,-3.1072748E-1,9.717951E-2,1.9518818E-1,2.2114192E-1,1.1647965E-1,1.9739383E-1,6.319858E-2,1.2044924E-1,-7.7498876E-2,3.275749E-2,1.3934937E-1,-5.906589E-2,1.3836819E-1,1.5186676E-1,6.80591E-2,-1.5931772E-2,-1.7076334E-1,-8.322002E-2,1.5565088E-1,2.2595264E-1,-6.706681E-2,2.0523329E-1,1.0737364E-1,-1.2329088E-1,1.5175249E-1,-1.05167195E-1,-1.6746247E-1,-9.602598E-2,1.9619973E-1,-1.0172997E-2,2.737597E-1,6.972806E-2,-8.964722E-2,-1.0531471E-1,-2.040805E-2,5.0270107E-2,1.9229527E-1,6.023559E-2,-1.12787314E-1,-1.5960287E-1,-6.3369446E-2,-1.667616E-1,-5.7307236E-2,9.086513E-2,-8.4758356E-2,2.7597308E-1,1.8194515E-2,1.4630704E-1,6.90726E-2,-1.8988867E-1,2.0725975E-2,-1.4335147E-1,1.1461387E-1,2.606103E-1,3.7424292E-3,-1.0308211E-1,1.2690814E-2,1.3829355E-1,-7.692846E-2,1.2169757E-1,-7.125493E-2,-1.7064887E-1,1.4932689E-1],"categories":[],"categories_nodes":[],"categories_segments":[],"categories_sizes":[],"default_left":[0,0,0,0,0,0,0,0,0,0,0,0,0,0,0,0,0,0,0,0,0,0,0,0,0,0,0,0,0,0,0,0,0,0,0,0,0,0,0,0,0,0,0,0,0,0,0,0,0,0,0,0,0,0,0,0,0,0,0,0,0,0,0,0,0,0,0,0,0,0,0,0,0,0,0,0,0,0,0,0,0,0,0,0,0,0,0,0,0,0,0,0,0,